<?xml version="1.0"?>
<opencv_storage>
<cascade>
  <stageType>BOOST</stageType>
  <featureType>HAAR</featureType>
  <height>24</height>
  <width>24</width>
  <stageParams>
    <boostType>GAB</boostType>
    <minHitRate>9.9500000476837158e-01</minHitRate>
    <maxFalseAlarm>5.0000000000000000e-01</maxFalseAlarm>
    <weightTrimRate>9.4999999999999996e-01</weightTrimRate>
    <maxDepth>1</maxDepth>
    <maxWeakCount>100</maxWeakCount></stageParams>
  <featureParams>
    <maxCatCount>0</maxCatCount>
    <featSize>1</featSize>
    <mode>BASIC</mode></featureParams>
  <stageNum>15</stageNum>
  <stages>
    <!-- stage 0 -->
    <_>
      <maxWeakCount>9</maxWeakCount>
      <stageThreshold>-1.0135672092437744e+00</stageThreshold>
      <weakClassifiers>
        <_>
          <internalNodes>
            0 -1 291 -7.7802571468055248e-04</internalNodes>
          <leafValues>
            7.9529410600662231e-01 1.9200000911951065e-02</leafValues></_>
        <_>
          <internalNodes>
            0 -1 247 -1.8152339616790414e-03</internalNodes>
          <leafValues>
            6.1911624670028687e-01 -2.0808506011962891e-01</leafValues></_>
        <_>
          <internalNodes>
            0 -1 288 -2.0559486001729965e-03</internalNodes>
          <leafValues>
            6.8682509660720825e-01 -2.1488620340824127e-01</leafValues></_>
        <_>
          <internalNodes>
            0 -1 287 1.4036213979125023e-03</internalNodes>
          <leafValues>
            -2.6781108975410461e-01 5.6496536731719971e-01</leafValues></_>
        <_>
          <internalNodes>
            0 -1 206 -1.5268800780177116e-03</internalNodes>
          <leafValues>
            5.3079080581665039e-01 -2.4605004489421844e-01</leafValues></_>
        <_>
          <internalNodes>
            0 -1 173 -2.0013949833810329e-03</internalNodes>
          <leafValues>
            5.4525756835937500e-01 -2.2906334698200226e-01</leafValues></_>
        <_>
          <internalNodes>
            0 -1 368 -1.2169445399194956e-03</internalNodes>
          <leafValues>
            4.5090937614440918e-01 -2.4748919904232025e-01</leafValues></_>
        <_>
          <internalNodes>
            0 -1 420 2.9967701993882656e-04</internalNodes>
          <leafValues>
            -2.1586626768112183e-01 4.5460414886474609e-01</leafValues></_>
        <_>
          <internalNodes>
            0 -1 337 1.3889404945075512e-03</internalNodes>
          <leafValues>
            -1.7783698439598083e-01 5.3780740499496460e-01</leafValues></_></weakClassifiers></_>
    <!-- stage 1 -->
    <_>
      <maxWeakCount>15</maxWeakCount>
      <stageThreshold>-9.1225183010101318e-01</stageThreshold>
      <weakClassifiers>
        <_>
          <internalNodes>
            0 -1 293 -1.9975546747446060e-03</internalNodes>
          <leafValues>
            7.8104138374328613e-01 8.5122130811214447e-02</leafValues></_>
        <_>
          <internalNodes>
            0 -1 266 -3.6951955407857895e-03</internalNodes>
          <leafValues>
            7.0422029495239258e-01 -9.8839953541755676e-02</leafValues></_>
        <_>
          <internalNodes>
            0 -1 450 -7.7150831930339336e-04</internalNodes>
          <leafValues>
            4.9553954601287842e-01 -2.0555785298347473e-01</leafValues></_>
        <_>
          <internalNodes>
            0 -1 366 -8.9068273082375526e-03</internalNodes>
          <leafValues>
            5.3574168682098389e-01 -1.8622983992099762e-01</leafValues></_>
        <_>
          <internalNodes>
            0 -1 174 -3.6594339180737734e-03</internalNodes>
          <leafValues>
            5.0208359956741333e-01 -1.6039203107357025e-01</leafValues></_>
        <_>
          <internalNodes>
            0 -1 258 2.2235168144106865e-03</internalNodes>
          <leafValues>
            -1.7711117863655090e-01 5.8364933729171753e-01</leafValues></_>
        <_>
          <internalNodes>
            0 -1 394 7.8389700502157211e-03</internalNodes>
          <leafValues>
            1.3997319340705872e-01 -6.3921654224395752e-01</leafValues></_>
        <_>
          <internalNodes>
            0 -1 323 2.0880731754004955e-03</internalNodes>
          <leafValues>
            -1.3064891099929810e-01 6.2814021110534668e-01</leafValues></_>
        <_>
          <internalNodes>
            0 -1 325 -1.1050016619265079e-03</internalNodes>
          <leafValues>
            4.5131820440292358e-01 -2.3413594067096710e-01</leafValues></_>
        <_>
          <internalNodes>
            0 -1 226 5.4115662351250648e-03</internalNodes>
          <leafValues>
            -1.7544795572757721e-01 3.4217131137847900e-01</leafValues></_>
        <_>
          <internalNodes>
            0 -1 253 -1.2239359784871340e-03</internalNodes>
          <leafValues>
            -6.4718210697174072e-01 1.1293704062700272e-01</leafValues></_>
        <_>
          <internalNodes>
            0 -1 247 -3.5257320851087570e-03</internalNodes>
          <leafValues>
            3.8052549958229065e-01 -1.6604398190975189e-01</leafValues></_>
        <_>
          <internalNodes>
            0 -1 73 -8.5786227136850357e-03</internalNodes>
          <leafValues>
            3.1206715106964111e-01 -1.9948822259902954e-01</leafValues></_>
        <_>
          <internalNodes>
            0 -1 116 9.3093216419219971e-02</internalNodes>
          <leafValues>
            8.9663915336132050e-02 -6.1516243219375610e-01</leafValues></_>
        <_>
          <internalNodes>
            0 -1 180 9.5981582999229431e-03</internalNodes>
          <leafValues>
            -1.2431287765502930e-01 5.3832817077636719e-01</leafValues></_></weakClassifiers></_>
    <!-- stage 2 -->
    <_>
      <maxWeakCount>23</maxWeakCount>
      <stageThreshold>-8.6175572872161865e-01</stageThreshold>
      <weakClassifiers>
        <_>
          <internalNodes>
            0 -1 252 4.2252740822732449e-03</internalNodes>
          <leafValues>
            1.3150684535503387e-01 7.9374998807907104e-01</leafValues></_>
        <_>
          <internalNodes>
            0 -1 259 -3.5272394306957722e-03</internalNodes>
          <leafValues>
            5.6777054071426392e-01 -1.1550343036651611e-01</leafValues></_>
        <_>
          <internalNodes>
            0 -1 248 -2.0641176961362362e-03</internalNodes>
          <leafValues>
            5.9059047698974609e-01 -1.6107702255249023e-01</leafValues></_>
        <_>
          <internalNodes>
            0 -1 192 -1.9832751713693142e-03</internalNodes>
          <leafValues>
            3.6067336797714233e-01 -2.1049006283283234e-01</leafValues></_>
        <_>
          <internalNodes>
            0 -1 337 1.6778260469436646e-03</internalNodes>
          <leafValues>
            -1.7888519167900085e-01 4.9354895949363708e-01</leafValues></_>
        <_>
          <internalNodes>
            0 -1 401 9.4186031492426991e-04</internalNodes>
          <leafValues>
            -1.7310781776905060e-01 3.9266914129257202e-01</leafValues></_>
        <_>
          <internalNodes>
            0 -1 393 1.7071930924430490e-03</internalNodes>
          <leafValues>
            -1.3077381253242493e-01 5.2448081970214844e-01</leafValues></_>
        <_>
          <internalNodes>
            0 -1 227 -1.8075718544423580e-03</internalNodes>
          <leafValues>
            4.6714055538177490e-01 -1.4435532689094543e-01</leafValues></_>
        <_>
          <internalNodes>
            0 -1 363 -1.2614070437848568e-03</internalNodes>
          <leafValues>
            2.9829910397529602e-01 -1.9515568017959595e-01</leafValues></_>
        <_>
          <internalNodes>
            0 -1 385 -9.7437069052830338e-04</internalNodes>
          <leafValues>
            4.4067177176475525e-01 -1.5750689804553986e-01</leafValues></_>
        <_>
          <internalNodes>
            0 -1 260 -8.8002104312181473e-03</internalNodes>
          <leafValues>
            -6.7422872781753540e-01 9.2413678765296936e-02</leafValues></_>
        <_>
          <internalNodes>
            0 -1 338 4.5219324529170990e-03</internalNodes>
          <leafValues>
            -1.8284000456333160e-01 3.5417392849922180e-01</leafValues></_>
        <_>
          <internalNodes>
            0 -1 211 -2.7013351209461689e-03</internalNodes>
          <leafValues>
            -7.0738518238067627e-01 1.0400324314832687e-01</leafValues></_>
        <_>
          <internalNodes>
            0 -1 157 1.7929271562024951e-03</internalNodes>
          <leafValues>
            -2.6231315732002258e-01 2.4283839762210846e-01</leafValues></_>
        <_>
          <internalNodes>
            0 -1 114 -2.9120860621333122e-02</internalNodes>
          <leafValues>
            -5.4224067926406860e-01 1.1744258552789688e-01</leafValues></_>
        <_>
          <internalNodes>
            0 -1 383 -7.7275699004530907e-04</internalNodes>
          <leafValues>
            3.2774657011032104e-01 -1.8893988430500031e-01</leafValues></_>
        <_>
          <internalNodes>
            0 -1 435 -4.8207971267402172e-03</internalNodes>
          <leafValues>
            -5.8886021375656128e-01 9.6170216798782349e-02</leafValues></_>
        <_>
          <internalNodes>
            0 -1 431 1.1412577703595161e-02</internalNodes>
          <leafValues>
            9.9246799945831299e-02 -6.1820858716964722e-01</leafValues></_>
        <_>
          <internalNodes>
            0 -1 465 -5.5558397434651852e-04</internalNodes>
          <leafValues>
            2.9531887173652649e-01 -2.2220365703105927e-01</leafValues></_>
        <_>
          <internalNodes>
            0 -1 439 6.1142374761402607e-04</internalNodes>
          <leafValues>
            -1.3460473716259003e-01 4.2924451828002930e-01</leafValues></_>
        <_>
          <internalNodes>
            0 -1 151 -1.0076061589643359e-03</internalNodes>
          <leafValues>
            4.8918658494949341e-01 -1.1548922955989838e-01</leafValues></_>
        <_>
          <internalNodes>
            0 -1 270 3.9438897510990500e-04</internalNodes>
          <leafValues>
            -1.8621745705604553e-01 2.9437583684921265e-01</leafValues></_>
        <_>
          <internalNodes>
            0 -1 317 -1.2310529127717018e-03</internalNodes>
          <leafValues>
            3.7748619914054871e-01 -1.3375553488731384e-01</leafValues></_></weakClassifiers></_>
    <!-- stage 3 -->
    <_>
      <maxWeakCount>31</maxWeakCount>
      <stageThreshold>-7.2680884599685669e-01</stageThreshold>
      <weakClassifiers>
        <_>
          <internalNodes>
            0 -1 258 -2.1344455890357494e-03</internalNodes>
          <leafValues>
            6.2515413761138916e-01 1.4972847700119019e-01</leafValues></_>
        <_>
          <internalNodes>
            0 -1 162 -1.0365096852183342e-02</internalNodes>
          <leafValues>
            3.2467737793922424e-01 -1.4983737468719482e-01</leafValues></_>
        <_>
          <internalNodes>
            0 -1 48 -4.6722916886210442e-03</internalNodes>
          <leafValues>
            2.3441475629806519e-01 -2.2199903428554535e-01</leafValues></_>
        <_>
          <internalNodes>
            0 -1 6 -6.1078695580363274e-03</internalNodes>
          <leafValues>
            -5.9418451786041260e-01 4.9504108726978302e-02</leafValues></_>
        <_>
          <internalNodes>
            0 -1 81 -5.1215160638093948e-03</internalNodes>
          <leafValues>
            5.6734740734100342e-01 -9.2823997139930725e-02</leafValues></_>
        <_>
          <internalNodes>
            0 -1 62 -3.9689820259809494e-03</internalNodes>
          <leafValues>
            2.8198128938674927e-01 -1.9760812819004059e-01</leafValues></_>
        <_>
          <internalNodes>
            0 -1 444 2.2030938416719437e-03</internalNodes>
          <leafValues>
            -1.5912665426731110e-01 2.9951485991477966e-01</leafValues></_>
        <_>
          <internalNodes>
            0 -1 415 -7.0886267349123955e-03</internalNodes>
          <leafValues>
            4.3498516082763672e-01 -1.1758036166429520e-01</leafValues></_>
        <_>
          <internalNodes>
            0 -1 215 1.4965916983783245e-02</internalNodes>
          <leafValues>
            7.3849663138389587e-02 -7.5985646247863770e-01</leafValues></_>
        <_>
          <internalNodes>
            0 -1 289 -7.5677374843508005e-04</internalNodes>
          <leafValues>
            -4.8617914319038391e-01 8.7854586541652679e-02</leafValues></_>
        <_>
          <internalNodes>
            0 -1 404 6.1545213684439659e-03</internalNodes>
          <leafValues>
            7.3254622519016266e-02 -5.4992365837097168e-01</leafValues></_>
        <_>
          <internalNodes>
            0 -1 103 -5.6980131193995476e-04</internalNodes>
          <leafValues>
            3.5490259528160095e-01 -1.3126204907894135e-01</leafValues></_>
        <_>
          <internalNodes>
            0 -1 480 5.0457497127354145e-03</internalNodes>
          <leafValues>
            1.0827202349901199e-01 -4.3463134765625000e-01</leafValues></_>
        <_>
          <internalNodes>
            0 -1 292 2.4338457733392715e-03</internalNodes>
          <leafValues>
            7.6411210000514984e-02 -5.5807185173034668e-01</leafValues></_>
        <_>
          <internalNodes>
            0 -1 503 1.1687874794006348e-03</internalNodes>
          <leafValues>
            -1.6012020409107208e-01 2.8654882311820984e-01</leafValues></_>
        <_>
          <internalNodes>
            0 -1 19 4.2980024591088295e-03</internalNodes>
          <leafValues>
            -1.5399383008480072e-01 2.5040763616561890e-01</leafValues></_>
        <_>
          <internalNodes>
            0 -1 246 -3.0069153290241957e-03</internalNodes>
          <leafValues>
            3.5054573416709900e-01 -1.2765167653560638e-01</leafValues></_>
        <_>
          <internalNodes>
            0 -1 352 -9.3484442913904786e-04</internalNodes>
          <leafValues>
            3.5512265563011169e-01 -1.2750653922557831e-01</leafValues></_>
        <_>
          <internalNodes>
            0 -1 213 -5.2648237906396389e-03</internalNodes>
          <leafValues>
            -4.5658203959465027e-01 9.0512640774250031e-02</leafValues></_>
        <_>
          <internalNodes>
            0 -1 212 -1.4619205612689257e-03</internalNodes>
          <leafValues>
            2.8509458899497986e-01 -1.5078046917915344e-01</leafValues></_>
        <_>
          <internalNodes>
            0 -1 72 -9.8887890577316284e-02</internalNodes>
          <leafValues>
            -6.8522059917449951e-01 6.1687048524618149e-02</leafValues></_>
        <_>
          <internalNodes>
            0 -1 205 -1.9742902368307114e-03</internalNodes>
          <leafValues>
            3.2304155826568604e-01 -1.4060115814208984e-01</leafValues></_>
        <_>
          <internalNodes>
            0 -1 358 5.2613765001296997e-03</internalNodes>
          <leafValues>
            -9.8417550325393677e-02 4.0181815624237061e-01</leafValues></_>
        <_>
          <internalNodes>
            0 -1 284 -5.6254155933856964e-02</internalNodes>
          <leafValues>
            -6.0415834188461304e-01 7.4079878628253937e-02</leafValues></_>
        <_>
          <internalNodes>
            0 -1 389 -1.0574970394372940e-02</internalNodes>
          <leafValues>
            -8.0000412464141846e-01 5.2418496459722519e-02</leafValues></_>
        <_>
          <internalNodes>
            0 -1 476 2.4723717942833900e-03</internalNodes>
          <leafValues>
            7.5748287141323090e-02 -4.8188170790672302e-01</leafValues></_>
        <_>
          <internalNodes>
            0 -1 305 -2.7051824145019054e-03</internalNodes>
          <leafValues>
            2.8094324469566345e-01 -1.5342319011688232e-01</leafValues></_>
        <_>
          <internalNodes>
            0 -1 287 4.2099114507436752e-03</internalNodes>
          <leafValues>
            -9.5634207129478455e-02 4.3569150567054749e-01</leafValues></_>
        <_>
          <internalNodes>
            0 -1 344 6.0662019997835159e-02</internalNodes>
          <leafValues>
            5.6818339973688126e-02 -7.6139128208160400e-01</leafValues></_>
        <_>
          <internalNodes>
            0 -1 138 -3.4800237044692039e-03</internalNodes>
          <leafValues>
            -3.3123832941055298e-01 1.1450985074043274e-01</leafValues></_>
        <_>
          <internalNodes>
            0 -1 107 -3.6493772640824318e-03</internalNodes>
          <leafValues>
            2.5157636404037476e-01 -1.5318767726421356e-01</leafValues></_></weakClassifiers></_>
    <!-- stage 4 -->
    <_>
      <maxWeakCount>38</maxWeakCount>
      <stageThreshold>-6.9079035520553589e-01</stageThreshold>
      <weakClassifiers>
        <_>
          <internalNodes>
            0 -1 287 3.1297097448259592e-03</internalNodes>
          <leafValues>
            1.9169549643993378e-01 6.4580154418945312e-01</leafValues></_>
        <_>
          <internalNodes>
            0 -1 340 -7.0338761433959007e-03</internalNodes>
          <leafValues>
            4.0494123101234436e-01 -9.2970624566078186e-02</leafValues></_>
        <_>
          <internalNodes>
            0 -1 364 2.1760440431535244e-03</internalNodes>
          <leafValues>
            -1.7091394960880280e-01 3.2570061087608337e-01</leafValues></_>
        <_>
          <internalNodes>
            0 -1 131 -2.7493443340063095e-03</internalNodes>
          <leafValues>
            1.5243522822856903e-01 -2.6083001494407654e-01</leafValues></_>
        <_>
          <internalNodes>
            0 -1 256 2.7605653740465641e-03</internalNodes>
          <leafValues>
            7.8340232372283936e-02 -5.9490734338760376e-01</leafValues></_>
        <_>
          <internalNodes>
            0 -1 123 4.3650076258927584e-04</internalNodes>
          <leafValues>
            -1.7499065399169922e-01 2.5604495406150818e-01</leafValues></_>
        <_>
          <internalNodes>
            0 -1 148 -5.8085261844098568e-04</internalNodes>
          <leafValues>
            2.8972205519676208e-01 -1.3221725821495056e-01</leafValues></_>
        <_>
          <internalNodes>
            0 -1 41 -8.2865729928016663e-03</internalNodes>
          <leafValues>
            -6.6672503948211670e-01 5.0862193107604980e-02</leafValues></_>
        <_>
          <internalNodes>
            0 -1 174 4.7902883961796761e-03</internalNodes>
          <leafValues>
            -1.0513857752084732e-01 4.0860384702682495e-01</leafValues></_>
        <_>
          <internalNodes>
            0 -1 258 -2.2300900891423225e-03</internalNodes>
          <leafValues>
            3.0254974961280823e-01 -1.5366537868976593e-01</leafValues></_>
        <_>
          <internalNodes>
            0 -1 172 6.7414687946438789e-03</internalNodes>
          <leafValues>
            6.5926000475883484e-02 -5.6294530630111694e-01</leafValues></_>
        <_>
          <internalNodes>
            0 -1 278 -2.6563545688986778e-03</internalNodes>
          <leafValues>
            3.6624819040298462e-01 -1.0016183555126190e-01</leafValues></_>
        <_>
          <internalNodes>
            0 -1 45 2.7083577588200569e-03</internalNodes>
          <leafValues>
            8.4152176976203918e-02 -4.7778359055519104e-01</leafValues></_>
        <_>
          <internalNodes>
            0 -1 235 -1.0773722082376480e-02</internalNodes>
          <leafValues>
            -5.4814004898071289e-01 7.9520188271999359e-02</leafValues></_>
        <_>
          <internalNodes>
            0 -1 161 -8.4316398715600371e-04</internalNodes>
          <leafValues>
            2.0555056631565094e-01 -2.0123095810413361e-01</leafValues></_>
        <_>
          <internalNodes>
            0 -1 406 9.6483377274125814e-04</internalNodes>
          <leafValues>
            -1.3155040144920349e-01 3.0190896987915039e-01</leafValues></_>
        <_>
          <internalNodes>
            0 -1 513 2.8180535882711411e-03</internalNodes>
          <leafValues>
            6.9526083767414093e-02 -5.8353471755981445e-01</leafValues></_>
        <_>
          <internalNodes>
            0 -1 429 -2.7908245101571083e-03</internalNodes>
          <leafValues>
            2.9013815522193909e-01 -1.3599419593811035e-01</leafValues></_>
        <_>
          <internalNodes>
            0 -1 238 4.7517251223325729e-03</internalNodes>
          <leafValues>
            -1.3432675600051880e-01 2.8477820754051208e-01</leafValues></_>
        <_>
          <internalNodes>
            0 -1 494 -2.2550271824002266e-03</internalNodes>
          <leafValues>
            -6.8314260244369507e-01 6.0438834130764008e-02</leafValues></_>
        <_>
          <internalNodes>
            0 -1 66 -2.0363875664770603e-03</internalNodes>
          <leafValues>
            3.0330654978752136e-01 -1.4121690392494202e-01</leafValues></_>
        <_>
          <internalNodes>
            0 -1 228 6.0616396367549896e-03</internalNodes>
          <leafValues>
            -1.0815528780221939e-01 3.1427344679832458e-01</leafValues></_>
        <_>
          <internalNodes>
            0 -1 71 2.1752507891505957e-03</internalNodes>
          <leafValues>
            -1.2791852653026581e-01 2.4430575966835022e-01</leafValues></_>
        <_>
          <internalNodes>
            0 -1 36 4.3725274736061692e-04</internalNodes>
          <leafValues>
            -1.9407217204570770e-01 1.6601803898811340e-01</leafValues></_>
        <_>
          <internalNodes>
            0 -1 513 -2.8107080142945051e-03</internalNodes>
          <leafValues>
            -5.4277342557907104e-01 6.4043760299682617e-02</leafValues></_>
        <_>
          <internalNodes>
            0 -1 348 -8.0468301894143224e-04</internalNodes>
          <leafValues>
            2.5883096456527710e-01 -1.3041177392005920e-01</leafValues></_>
        <_>
          <internalNodes>
            0 -1 359 -6.2075150199234486e-03</internalNodes>
          <leafValues>
            2.2053083777427673e-01 -1.5449200570583344e-01</leafValues></_>
        <_>
          <internalNodes>
            0 -1 451 -1.1167868506163359e-03</internalNodes>
          <leafValues>
            2.4229681491851807e-01 -1.4060783386230469e-01</leafValues></_>
        <_>
          <internalNodes>
            0 -1 256 -3.1727640889585018e-03</internalNodes>
          <leafValues>
            -6.4614266157150269e-01 5.6606452912092209e-02</leafValues></_>
        <_>
          <internalNodes>
            0 -1 466 -3.7815002724528313e-03</internalNodes>
          <leafValues>
            -2.8924527764320374e-01 1.1764705181121826e-01</leafValues></_>
        <_>
          <internalNodes>
            0 -1 230 -1.2425363529473543e-03</internalNodes>
          <leafValues>
            2.7785745263099670e-01 -1.2553822994232178e-01</leafValues></_>
        <_>
          <internalNodes>
            0 -1 498 9.4631325919181108e-04</internalNodes>
          <leafValues>
            5.8139510452747345e-02 -5.7337427139282227e-01</leafValues></_>
        <_>
          <internalNodes>
            0 -1 514 1.1577311670407653e-04</internalNodes>
          <leafValues>
            -1.8502712249755859e-01 1.7575553059577942e-01</leafValues></_>
        <_>
          <internalNodes>
            0 -1 287 -7.8194180969148874e-04</internalNodes>
          <leafValues>
            2.2840391099452972e-01 -1.3876448571681976e-01</leafValues></_>
        <_>
          <internalNodes>
            0 -1 137 -1.3272098265588284e-02</internalNodes>
          <leafValues>
            3.3628574013710022e-01 -1.2156476825475693e-01</leafValues></_>
        <_>
          <internalNodes>
            0 -1 200 1.3934567570686340e-02</internalNodes>
          <leafValues>
            9.8208785057067871e-02 -3.6177605390548706e-01</leafValues></_>
        <_>
          <internalNodes>
            0 -1 315 -2.5241766124963760e-02</internalNodes>
          <leafValues>
            -3.8220658898353577e-01 9.2493981122970581e-02</leafValues></_>
        <_>
          <internalNodes>
            0 -1 230 7.0927361957728863e-04</internalNodes>
          <leafValues>
            -1.2900424003601074e-01 2.7448296546936035e-01</leafValues></_></weakClassifiers></_>
    <!-- stage 5 -->
    <_>
      <maxWeakCount>39</maxWeakCount>
      <stageThreshold>-6.6221189498901367e-01</stageThreshold>
      <weakClassifiers>
        <_>
          <internalNodes>
            0 -1 293 -2.7097789570689201e-03</internalNodes>
          <leafValues>
            6.0995852947235107e-01 1.8809005618095398e-01</leafValues></_>
        <_>
          <internalNodes>
            0 -1 223 -2.7826260775327682e-03</internalNodes>
          <leafValues>
            3.5784238576889038e-01 -1.0808952152729034e-01</leafValues></_>
        <_>
          <internalNodes>
            0 -1 143 -1.3732756488025188e-03</internalNodes>
          <leafValues>
            2.5751820206642151e-01 -1.6759386658668518e-01</leafValues></_>
        <_>
          <internalNodes>
            0 -1 211 2.7472130022943020e-03</internalNodes>
          <leafValues>
            4.8705674707889557e-02 -6.1136740446090698e-01</leafValues></_>
        <_>
          <internalNodes>
            0 -1 436 -3.9000152610242367e-03</internalNodes>
          <leafValues>
            -4.0286052227020264e-01 9.0208806097507477e-02</leafValues></_>
        <_>
          <internalNodes>
            0 -1 462 -1.5178465982899070e-03</internalNodes>
          <leafValues>
            2.5416517257690430e-01 -1.3523122668266296e-01</leafValues></_>
        <_>
          <internalNodes>
            0 -1 217 -2.5202664546668530e-03</internalNodes>
          <leafValues>
            -8.2874053716659546e-01 3.5977795720100403e-02</leafValues></_>
        <_>
          <internalNodes>
            0 -1 183 1.5200588386505842e-03</internalNodes>
          <leafValues>
            -1.3556979596614838e-01 3.1330171227455139e-01</leafValues></_>
        <_>
          <internalNodes>
            0 -1 522 1.1782445944845676e-03</internalNodes>
          <leafValues>
            5.7264141738414764e-02 -6.0116887092590332e-01</leafValues></_>
        <_>
          <internalNodes>
            0 -1 336 3.2939422875642776e-02</internalNodes>
          <leafValues>
            5.2585542201995850e-02 -6.6420030593872070e-01</leafValues></_>
        <_>
          <internalNodes>
            0 -1 484 2.4113889958243817e-04</internalNodes>
          <leafValues>
            -1.4499782025814056e-01 2.5513869524002075e-01</leafValues></_>
        <_>
          <internalNodes>
            0 -1 274 -9.6448446856811643e-04</internalNodes>
          <leafValues>
            -4.1271969676017761e-01 8.9332573115825653e-02</leafValues></_>
        <_>
          <internalNodes>
            0 -1 283 -2.2927629761397839e-03</internalNodes>
          <leafValues>
            2.4992917478084564e-01 -1.5979798138141632e-01</leafValues></_>
        <_>
          <internalNodes>
            0 -1 347 -2.7701333165168762e-03</internalNodes>
          <leafValues>
            1.9985896348953247e-01 -1.8173320591449738e-01</leafValues></_>
        <_>
          <internalNodes>
            0 -1 225 1.0508153587579727e-02</internalNodes>
          <leafValues>
            -1.1981969326734543e-01 2.9790836572647095e-01</leafValues></_>
        <_>
          <internalNodes>
            0 -1 152 -9.4010904431343079e-03</internalNodes>
          <leafValues>
            3.4366193413734436e-01 -1.0239215940237045e-01</leafValues></_>
        <_>
          <internalNodes>
            0 -1 327 -1.5059185680001974e-03</internalNodes>
          <leafValues>
            -5.9112769365310669e-01 6.0081172734498978e-02</leafValues></_>
        <_>
          <internalNodes>
            0 -1 112 -2.8863262850791216e-03</internalNodes>
          <leafValues>
            4.3837368488311768e-01 -8.0311030149459839e-02</leafValues></_>
        <_>
          <internalNodes>
            0 -1 324 2.0015123300254345e-03</internalNodes>
          <leafValues>
            7.2434082627296448e-02 -5.5324590206146240e-01</leafValues></_>
        <_>
          <internalNodes>
            0 -1 453 -2.3548514582216740e-03</internalNodes>
          <leafValues>
            2.9604873061180115e-01 -1.2688125669956207e-01</leafValues></_>
        <_>
          <internalNodes>
            0 -1 530 -1.3694406952708960e-03</internalNodes>
          <leafValues>
            -4.9811306595802307e-01 7.1478955447673798e-02</leafValues></_>
        <_>
          <internalNodes>
            0 -1 417 -3.3129239454865456e-03</internalNodes>
          <leafValues>
            -5.7164430618286133e-01 4.8956822603940964e-02</leafValues></_>
        <_>
          <internalNodes>
            0 -1 5 5.3468700498342514e-03</internalNodes>
          <leafValues>
            1.4355567097663879e-01 -2.1483288705348969e-01</leafValues></_>
        <_>
          <internalNodes>
            0 -1 325 -1.5262756496667862e-03</internalNodes>
          <leafValues>
            2.6974856853485107e-01 -1.2098221480846405e-01</leafValues></_>
        <_>
          <internalNodes>
            0 -1 79 -3.1667179428040981e-03</internalNodes>
          <leafValues>
            3.3801177144050598e-01 -1.1092294007539749e-01</leafValues></_>
        <_>
          <internalNodes>
            0 -1 204 -1.2476521078497171e-03</internalNodes>
          <leafValues>
            3.1966078281402588e-01 -1.0814280807971954e-01</leafValues></_>
        <_>
          <internalNodes>
            0 -1 117 -2.5583652313798666e-03</internalNodes>
          <leafValues>
            -8.1198573112487793e-01 5.0023395568132401e-02</leafValues></_>
        <_>
          <internalNodes>
            0 -1 96 -5.6314812973141670e-03</internalNodes>
          <leafValues>
            1.8724942207336426e-01 -1.8516486883163452e-01</leafValues></_>
        <_>
          <internalNodes>
            0 -1 65 -1.9226460717618465e-03</internalNodes>
          <leafValues>
            2.3929128050804138e-01 -1.4978475868701935e-01</leafValues></_>
        <_>
          <internalNodes>
            0 -1 307 -9.1886386508122087e-04</internalNodes>
          <leafValues>
            -3.2257473468780518e-01 1.1251132190227509e-01</leafValues></_>
        <_>
          <internalNodes>
            0 -1 483 -4.6565354568883777e-04</internalNodes>
          <leafValues>
            2.2001020610332489e-01 -1.4977404475212097e-01</leafValues></_>
        <_>
          <internalNodes>
            0 -1 343 1.5718911308795214e-03</internalNodes>
          <leafValues>
            7.6547786593437195e-02 -4.2558401823043823e-01</leafValues></_>
        <_>
          <internalNodes>
            0 -1 386 -3.6629982059821486e-04</internalNodes>
          <leafValues>
            1.3482004404067993e-01 -2.3864059150218964e-01</leafValues></_>
        <_>
          <internalNodes>
            0 -1 11 6.8363687023520470e-04</internalNodes>
          <leafValues>
            8.5773214697837830e-02 -3.7262955307960510e-01</leafValues></_>
        <_>
          <internalNodes>
            0 -1 216 -2.2497229278087616e-02</internalNodes>
          <leafValues>
            -6.8707221746444702e-01 4.3882388621568680e-02</leafValues></_>
        <_>
          <internalNodes>
            0 -1 136 3.7348434329032898e-02</internalNodes>
          <leafValues>
            5.2686128765344620e-02 -5.5522984266281128e-01</leafValues></_>
        <_>
          <internalNodes>
            0 -1 473 1.4935520011931658e-03</internalNodes>
          <leafValues>
            -8.4984928369522095e-02 3.7720999121665955e-01</leafValues></_>
        <_>
          <internalNodes>
            0 -1 454 1.3635398354381323e-03</internalNodes>
          <leafValues>
            5.3474944084882736e-02 -6.2145572900772095e-01</leafValues></_>
        <_>
          <internalNodes>
            0 -1 199 -7.8797567402943969e-04</internalNodes>
          <leafValues>
            2.5537559390068054e-01 -1.3481363654136658e-01</leafValues></_></weakClassifiers></_>
    <!-- stage 6 -->
    <_>
      <maxWeakCount>39</maxWeakCount>
      <stageThreshold>-6.7297798395156860e-01</stageThreshold>
      <weakClassifiers>
        <_>
          <internalNodes>
            0 -1 330 -9.7508687758818269e-04</internalNodes>
          <leafValues>
            5.7553958892822266e-01 1.7377567291259766e-01</leafValues></_>
        <_>
          <internalNodes>
            0 -1 298 8.1852748990058899e-03</internalNodes>
          <leafValues>
            -9.1633930802345276e-02 3.4520614147186279e-01</leafValues></_>
        <_>
          <internalNodes>
            0 -1 101 1.0860182344913483e-02</internalNodes>
          <leafValues>
            -1.5108981728553772e-01 3.9694824814796448e-01</leafValues></_>
        <_>
          <internalNodes>
            0 -1 80 -1.3082180172204971e-02</internalNodes>
          <leafValues>
            7.5265794992446899e-01 -3.5007007420063019e-02</leafValues></_>
        <_>
          <internalNodes>
            0 -1 211 -3.4287525340914726e-03</internalNodes>
          <leafValues>
            -7.6673340797424316e-01 8.3792723715305328e-02</leafValues></_>
        <_>
          <internalNodes>
            0 -1 475 -1.1456761276349425e-03</internalNodes>
          <leafValues>
            2.2379928827285767e-01 -1.8120141327381134e-01</leafValues></_>
        <_>
          <internalNodes>
            0 -1 425 1.1616516858339310e-02</internalNodes>
          <leafValues>
            4.3796896934509277e-02 -4.8020529747009277e-01</leafValues></_>
        <_>
          <internalNodes>
            0 -1 432 -1.6842525452375412e-02</internalNodes>
          <leafValues>
            3.0362895131111145e-01 -1.0761883109807968e-01</leafValues></_>
        <_>
          <internalNodes>
            0 -1 409 -2.4547572247684002e-03</internalNodes>
          <leafValues>
            1.8405401706695557e-01 -1.6751517355442047e-01</leafValues></_>
        <_>
          <internalNodes>
            0 -1 183 5.3282169392332435e-04</internalNodes>
          <leafValues>
            -1.6146741807460785e-01 1.9947217404842377e-01</leafValues></_>
        <_>
          <internalNodes>
            0 -1 533 9.4763701781630516e-04</internalNodes>
          <leafValues>
            8.6125910282135010e-02 -4.1535452008247375e-01</leafValues></_>
        <_>
          <internalNodes>
            0 -1 186 1.6853192355483770e-03</internalNodes>
          <leafValues>
            -1.1858859658241272e-01 3.0147489905357361e-01</leafValues></_>
        <_>
          <internalNodes>
            0 -1 524 -1.0869245743378997e-03</internalNodes>
          <leafValues>
            -2.9733443260192871e-01 1.2140554189682007e-01</leafValues></_>
        <_>
          <internalNodes>
            0 -1 256 -1.8255789764225483e-03</internalNodes>
          <leafValues>
            -4.8773178458213806e-01 6.8179547786712646e-02</leafValues></_>
        <_>
          <internalNodes>
            0 -1 222 -2.3398487828671932e-03</internalNodes>
          <leafValues>
            3.5143578052520752e-01 -1.0513453185558319e-01</leafValues></_>
        <_>
          <internalNodes>
            0 -1 209 1.5087102074176073e-03</internalNodes>
          <leafValues>
            -1.1083719134330750e-01 4.6274116635322571e-01</leafValues></_>
        <_>
          <internalNodes>
            0 -1 391 -6.1858724802732468e-04</internalNodes>
          <leafValues>
            3.4152159094810486e-01 -1.0802885144948959e-01</leafValues></_>
        <_>
          <internalNodes>
            0 -1 518 -3.3743381500244141e-03</internalNodes>
          <leafValues>
            -6.8288838863372803e-01 6.2721021473407745e-02</leafValues></_>
        <_>
          <internalNodes>
            0 -1 249 -9.4734802842140198e-03</internalNodes>
          <leafValues>
            -5.5234467983245850e-01 5.9940844774246216e-02</leafValues></_>
        <_>
          <internalNodes>
            0 -1 168 -1.5163342468440533e-03</internalNodes>
          <leafValues>
            2.6353001594543457e-01 -1.8207795917987823e-01</leafValues></_>
        <_>
          <internalNodes>
            0 -1 25 3.1559923663735390e-03</internalNodes>
          <leafValues>
            6.7816264927387238e-02 -4.7490721940994263e-01</leafValues></_>
        <_>
          <internalNodes>
            0 -1 26 4.6483315527439117e-03</internalNodes>
          <leafValues>
            -1.0952050238847733e-01 3.2987889647483826e-01</leafValues></_>
        <_>
          <internalNodes>
            0 -1 287 -2.2242590785026550e-03</internalNodes>
          <leafValues>
            3.3877220749855042e-01 -1.0099362581968307e-01</leafValues></_>
        <_>
          <internalNodes>
            0 -1 257 -8.6735037621110678e-04</internalNodes>
          <leafValues>
            2.3966619372367859e-01 -1.9249239563941956e-01</leafValues></_>
        <_>
          <internalNodes>
            0 -1 169 -2.2492376156151295e-03</internalNodes>
          <leafValues>
            -5.8710932731628418e-01 6.3033722341060638e-02</leafValues></_>
        <_>
          <internalNodes>
            0 -1 512 1.2072445824742317e-03</internalNodes>
          <leafValues>
            4.9871601164340973e-02 -6.1958962678909302e-01</leafValues></_>
        <_>
          <internalNodes>
            0 -1 316 1.8423064611852169e-03</internalNodes>
          <leafValues>
            -1.5232068300247192e-01 2.4777457118034363e-01</leafValues></_>
        <_>
          <internalNodes>
            0 -1 346 -4.0601205546408892e-04</internalNodes>
          <leafValues>
            1.8813966214656830e-01 -2.0295077562332153e-01</leafValues></_>
        <_>
          <internalNodes>
            0 -1 146 -2.8072472661733627e-02</internalNodes>
          <leafValues>
            -5.8032608032226562e-01 6.8113774061203003e-02</leafValues></_>
        <_>
          <internalNodes>
            0 -1 115 -2.2630877792835236e-03</internalNodes>
          <leafValues>
            3.6651113629341125e-01 -1.0838114470243454e-01</leafValues></_>
        <_>
          <internalNodes>
            0 -1 277 -1.7050032038241625e-03</internalNodes>
          <leafValues>
            3.0835992097854614e-01 -1.1358707398176193e-01</leafValues></_>
        <_>
          <internalNodes>
            0 -1 16 3.9088786579668522e-03</internalNodes>
          <leafValues>
            6.8865701556205750e-02 -5.9155970811843872e-01</leafValues></_>
        <_>
          <internalNodes>
            0 -1 242 1.7490262398496270e-03</internalNodes>
          <leafValues>
            -1.4168123900890350e-01 2.5466829538345337e-01</leafValues></_>
        <_>
          <internalNodes>
            0 -1 197 -1.3069189153611660e-02</internalNodes>
          <leafValues>
            -3.4520903229713440e-01 1.1179003864526749e-01</leafValues></_>
        <_>
          <internalNodes>
            0 -1 160 1.0449669323861599e-02</internalNodes>
          <leafValues>
            9.3785703182220459e-02 -3.5081824660301208e-01</leafValues></_>
        <_>
          <internalNodes>
            0 -1 12 4.1804155334830284e-03</internalNodes>
          <leafValues>
            6.9584511220455170e-02 -4.5813384652137756e-01</leafValues></_>
        <_>
          <internalNodes>
            0 -1 59 -6.3333031721413136e-03</internalNodes>
          <leafValues>
            5.0900524854660034e-01 -7.7509626746177673e-02</leafValues></_>
        <_>
          <internalNodes>
            0 -1 167 -1.4268008526414633e-03</internalNodes>
          <leafValues>
            2.7588823437690735e-01 -1.3693442940711975e-01</leafValues></_>
        <_>
          <internalNodes>
            0 -1 208 -8.2071893848478794e-04</internalNodes>
          <leafValues>
            -3.9909994602203369e-01 9.4681136310100555e-02</leafValues></_></weakClassifiers></_>
    <!-- stage 7 -->
    <_>
      <maxWeakCount>45</maxWeakCount>
      <stageThreshold>-6.2048923969268799e-01</stageThreshold>
      <weakClassifiers>
        <_>
          <internalNodes>
            0 -1 532 1.0380807798355818e-03</internalNodes>
          <leafValues>
            3.9880630373954773e-01 -1.3618676364421844e-01</leafValues></_>
        <_>
          <internalNodes>
            0 -1 262 6.5972246229648590e-03</internalNodes>
          <leafValues>
            -6.1884727329015732e-02 4.5651462674140930e-01</leafValues></_>
        <_>
          <internalNodes>
            0 -1 178 1.4714697375893593e-02</internalNodes>
          <leafValues>
            -7.2775073349475861e-02 4.3855971097946167e-01</leafValues></_>
        <_>
          <internalNodes>
            0 -1 527 4.2788311839103699e-04</internalNodes>
          <leafValues>
            1.1138370633125305e-01 -3.0120903253555298e-01</leafValues></_>
        <_>
          <internalNodes>
            0 -1 9 8.0506857484579086e-03</internalNodes>
          <leafValues>
            5.5376943200826645e-02 -5.6221669912338257e-01</leafValues></_>
        <_>
          <internalNodes>
            0 -1 118 -1.0028079850599170e-03</internalNodes>
          <leafValues>
            2.1159325540065765e-01 -1.6573318839073181e-01</leafValues></_>
        <_>
          <internalNodes>
            0 -1 56 -1.1184673756361008e-02</internalNodes>
          <leafValues>
            4.0901997685432434e-01 -8.6751423776149750e-02</leafValues></_>
        <_>
          <internalNodes>
            0 -1 355 -2.1268114447593689e-02</internalNodes>
          <leafValues>
            -5.5701172351837158e-01 6.1658367514610291e-02</leafValues></_>
        <_>
          <internalNodes>
            0 -1 376 -1.6162618994712830e-03</internalNodes>
          <leafValues>
            -5.4016983509063721e-01 5.7818442583084106e-02</leafValues></_>
        <_>
          <internalNodes>
            0 -1 286 -2.0454963669180870e-03</internalNodes>
          <leafValues>
            -4.2639935016632080e-01 7.6755359768867493e-02</leafValues></_>
        <_>
          <internalNodes>
            0 -1 91 5.6945561664178967e-04</internalNodes>
          <leafValues>
            -1.6975994408130646e-01 1.9798456132411957e-01</leafValues></_>
        <_>
          <internalNodes>
            0 -1 381 -8.1524252891540527e-03</internalNodes>
          <leafValues>
            -4.9615171551704407e-01 6.4286358654499054e-02</leafValues></_>
        <_>
          <internalNodes>
            0 -1 319 -1.9907014211639762e-04</internalNodes>
          <leafValues>
            1.6402091085910797e-01 -1.9720549881458282e-01</leafValues></_>
        <_>
          <internalNodes>
            0 -1 448 -4.8351701116189361e-04</internalNodes>
          <leafValues>
            2.7846875786781311e-01 -1.1780081689357758e-01</leafValues></_>
        <_>
          <internalNodes>
            0 -1 148 -7.1237463271245360e-04</internalNodes>
          <leafValues>
            2.5161483883857727e-01 -1.3577653467655182e-01</leafValues></_>
        <_>
          <internalNodes>
            0 -1 140 -4.7721638111397624e-04</internalNodes>
          <leafValues>
            2.6359340548515320e-01 -1.5172722935676575e-01</leafValues></_>
        <_>
          <internalNodes>
            0 -1 57 1.2523321434855461e-02</internalNodes>
          <leafValues>
            4.7429867088794708e-02 -7.1756029129028320e-01</leafValues></_>
        <_>
          <internalNodes>
            0 -1 0 4.6203527599573135e-03</internalNodes>
          <leafValues>
            4.9431335180997849e-02 -5.8205080032348633e-01</leafValues></_>
        <_>
          <internalNodes>
            0 -1 4 3.2218163833022118e-03</internalNodes>
          <leafValues>
            7.8045994043350220e-02 -3.6249232292175293e-01</leafValues></_>
        <_>
          <internalNodes>
            0 -1 125 -2.9002707451581955e-03</internalNodes>
          <leafValues>
            4.3814566731452942e-01 -7.1110174059867859e-02</leafValues></_>
        <_>
          <internalNodes>
            0 -1 352 -1.0085036046802998e-03</internalNodes>
          <leafValues>
            2.8998064994812012e-01 -1.0068493336439133e-01</leafValues></_>
        <_>
          <internalNodes>
            0 -1 329 -1.8030602950602770e-03</internalNodes>
          <leafValues>
            -5.6962013244628906e-01 5.7650960981845856e-02</leafValues></_>
        <_>
          <internalNodes>
            0 -1 268 -4.5182317262515426e-04</internalNodes>
          <leafValues>
            -2.3073491454124451e-01 1.3383887708187103e-01</leafValues></_>
        <_>
          <internalNodes>
            0 -1 85 -1.0011613368988037e-02</internalNodes>
          <leafValues>
            -7.1584671735763550e-01 4.5654878020286560e-02</leafValues></_>
        <_>
          <internalNodes>
            0 -1 74 1.9931402057409286e-03</internalNodes>
          <leafValues>
            1.3221561908721924e-01 -2.2959172725677490e-01</leafValues></_>
        <_>
          <internalNodes>
            0 -1 370 5.3232192294672132e-04</internalNodes>
          <leafValues>
            -1.6357947885990143e-01 1.6741468012332916e-01</leafValues></_>
        <_>
          <internalNodes>
            0 -1 67 1.1751820566132665e-03</internalNodes>
          <leafValues>
            5.0177078694105148e-02 -5.6338566541671753e-01</leafValues></_>
        <_>
          <internalNodes>
            0 -1 277 -8.6284778080880642e-04</internalNodes>
          <leafValues>
            2.2075313329696655e-01 -1.3848759233951569e-01</leafValues></_>
        <_>
          <internalNodes>
            0 -1 164 3.2439345959573984e-03</internalNodes>
          <leafValues>
            -1.1462874710559845e-01 3.2823100686073303e-01</leafValues></_>
        <_>
          <internalNodes>
            0 -1 459 1.5137321315705776e-03</internalNodes>
          <leafValues>
            7.0398434996604919e-02 -4.5847234129905701e-01</leafValues></_>
        <_>
          <internalNodes>
            0 -1 489 -6.7200209014117718e-04</internalNodes>
          <leafValues>
            2.1805217862129211e-01 -1.2818136811256409e-01</leafValues></_>
        <_>
          <internalNodes>
            0 -1 271 8.0515462905168533e-03</internalNodes>
          <leafValues>
            5.6320365518331528e-02 -5.1617532968521118e-01</leafValues></_>
        <_>
          <internalNodes>
            0 -1 445 1.5155754052102566e-02</internalNodes>
          <leafValues>
            -6.6534757614135742e-02 5.0114560127258301e-01</leafValues></_>
        <_>
          <internalNodes>
            0 -1 396 -1.3670776039361954e-02</internalNodes>
          <leafValues>
            -6.5165251493453979e-01 5.8227811008691788e-02</leafValues></_>
        <_>
          <internalNodes>
            0 -1 20 -4.2197510600090027e-02</internalNodes>
          <leafValues>
            -4.3212255835533142e-01 5.8994546532630920e-02</leafValues></_>
        <_>
          <internalNodes>
            0 -1 497 9.6916139591485262e-04</internalNodes>
          <leafValues>
            7.1075692772865295e-02 -4.0957170724868774e-01</leafValues></_>
        <_>
          <internalNodes>
            0 -1 84 -2.5143690872937441e-03</internalNodes>
          <leafValues>
            3.6569905281066895e-01 -8.8628739118576050e-02</leafValues></_>
        <_>
          <internalNodes>
            0 -1 179 9.2932593543082476e-04</internalNodes>
          <leafValues>
            -1.0237161070108414e-01 3.2634273171424866e-01</leafValues></_>
        <_>
          <internalNodes>
            0 -1 151 -7.6444761361926794e-04</internalNodes>
          <leafValues>
            3.0037465691566467e-01 -1.1233751475811005e-01</leafValues></_>
        <_>
          <internalNodes>
            0 -1 52 4.8556223511695862e-02</internalNodes>
          <leafValues>
            6.0452297329902649e-02 -5.8924949169158936e-01</leafValues></_>
        <_>
          <internalNodes>
            0 -1 33 -3.7074901629239321e-03</internalNodes>
          <leafValues>
            -5.9432798624038696e-01 4.8140674829483032e-02</leafValues></_>
        <_>
          <internalNodes>
            0 -1 495 -1.4731820672750473e-02</internalNodes>
          <leafValues>
            -5.2390217781066895e-01 5.2406046539545059e-02</leafValues></_>
        <_>
          <internalNodes>
            0 -1 507 -1.6086408868432045e-04</internalNodes>
          <leafValues>
            -1.7477008700370789e-01 1.6297690570354462e-01</leafValues></_>
        <_>
          <internalNodes>
            0 -1 511 -3.8320070598274469e-04</internalNodes>
          <leafValues>
            2.5226229429244995e-01 -1.2183829396963120e-01</leafValues></_>
        <_>
          <internalNodes>
            0 -1 273 -1.1737335473299026e-02</internalNodes>
          <leafValues>
            -4.9197375774383545e-01 6.4829453825950623e-02</leafValues></_></weakClassifiers></_>
    <!-- stage 8 -->
    <_>
      <maxWeakCount>47</maxWeakCount>
      <stageThreshold>-6.6622227430343628e-01</stageThreshold>
      <weakClassifiers>
        <_>
          <internalNodes>
            0 -1 251 5.9802113100886345e-03</internalNodes>
          <leafValues>
            2.2412697970867157e-01 6.6095238924026489e-01</leafValues></_>
        <_>
          <internalNodes>
            0 -1 340 -7.1864267811179161e-03</internalNodes>
          <leafValues>
            3.4994420409202576e-01 -8.0471917986869812e-02</leafValues></_>
        <_>
          <internalNodes>
            0 -1 365 1.3085460290312767e-02</internalNodes>
          <leafValues>
            -1.1593965440988541e-01 3.8484126329421997e-01</leafValues></_>
        <_>
          <internalNodes>
            0 -1 204 -3.6542359157465398e-04</internalNodes>
          <leafValues>
            2.0527261495590210e-01 -1.7619650065898895e-01</leafValues></_>
        <_>
          <internalNodes>
            0 -1 218 2.3304736241698265e-03</internalNodes>
          <leafValues>
            6.4924284815788269e-02 -4.7093504667282104e-01</leafValues></_>
        <_>
          <internalNodes>
            0 -1 357 2.4301570374518633e-03</internalNodes>
          <leafValues>
            -7.6818577945232391e-02 4.4616597890853882e-01</leafValues></_>
        <_>
          <internalNodes>
            0 -1 113 3.0866572633385658e-02</internalNodes>
          <leafValues>
            8.2665950059890747e-02 -3.9266335964202881e-01</leafValues></_>
        <_>
          <internalNodes>
            0 -1 142 -8.1729271914809942e-04</internalNodes>
          <leafValues>
            2.0935936272144318e-01 -1.6381795704364777e-01</leafValues></_>
        <_>
          <internalNodes>
            0 -1 356 1.3301109429448843e-03</internalNodes>
          <leafValues>
            -1.0945352166891098e-01 3.1393715739250183e-01</leafValues></_>
        <_>
          <internalNodes>
            0 -1 37 4.2611071839928627e-03</internalNodes>
          <leafValues>
            -7.8767485916614532e-02 3.6340934038162231e-01</leafValues></_>
        <_>
          <internalNodes>
            0 -1 55 4.0369816124439240e-03</internalNodes>
          <leafValues>
            5.4922241717576981e-02 -6.5361672639846802e-01</leafValues></_>
        <_>
          <internalNodes>
            0 -1 78 -5.4361899383366108e-03</internalNodes>
          <leafValues>
            -6.7032963037490845e-01 4.5007355511188507e-02</leafValues></_>
        <_>
          <internalNodes>
            0 -1 345 -5.6794574484229088e-03</internalNodes>
          <leafValues>
            -5.3740268945693970e-01 5.0566822290420532e-02</leafValues></_>
        <_>
          <internalNodes>
            0 -1 128 5.6374893756583333e-04</internalNodes>
          <leafValues>
            -1.0751489549875259e-01 2.7688524127006531e-01</leafValues></_>
        <_>
          <internalNodes>
            0 -1 124 -2.2437977604568005e-03</internalNodes>
          <leafValues>
            -3.6811682581901550e-01 8.8410183787345886e-02</leafValues></_>
        <_>
          <internalNodes>
            0 -1 175 -4.2933691293001175e-03</internalNodes>
          <leafValues>
            4.3887451291084290e-01 -6.9661960005760193e-02</leafValues></_>
        <_>
          <internalNodes>
            0 -1 508 1.1746541131287813e-03</internalNodes>
          <leafValues>
            6.9536343216896057e-02 -4.5900446176528931e-01</leafValues></_>
        <_>
          <internalNodes>
            0 -1 24 -1.0407847585156560e-03</internalNodes>
          <leafValues>
            2.1506299078464508e-01 -1.3981828093528748e-01</leafValues></_>
        <_>
          <internalNodes>
            0 -1 30 7.9142593313008547e-04</internalNodes>
          <leafValues>
            7.0352479815483093e-02 -4.5249092578887939e-01</leafValues></_>
        <_>
          <internalNodes>
            0 -1 212 -2.5369133800268173e-03</internalNodes>
          <leafValues>
            2.6770323514938354e-01 -1.1131916195154190e-01</leafValues></_>
        <_>
          <internalNodes>
            0 -1 219 -2.3668264038860798e-03</internalNodes>
          <leafValues>
            3.6964702606201172e-01 -9.5055468380451202e-02</leafValues></_>
        <_>
          <internalNodes>
            0 -1 407 -1.9911271519958973e-03</internalNodes>
          <leafValues>
            2.7494889497756958e-01 -1.0608819127082825e-01</leafValues></_>
        <_>
          <internalNodes>
            0 -1 334 -8.8816769421100616e-03</internalNodes>
          <leafValues>
            -4.1181206703186035e-01 8.1707328557968140e-02</leafValues></_>
        <_>
          <internalNodes>
            0 -1 371 6.4523785840719938e-04</internalNodes>
          <leafValues>
            -1.4452549815177917e-01 2.1280053257942200e-01</leafValues></_>
        <_>
          <internalNodes>
            0 -1 526 -4.5454101637005806e-03</internalNodes>
          <leafValues>
            -5.9571021795272827e-01 5.5183921009302139e-02</leafValues></_>
        <_>
          <internalNodes>
            0 -1 440 -2.9736277647316456e-03</internalNodes>
          <leafValues>
            3.7065514922142029e-01 -8.2425132393836975e-02</leafValues></_>
        <_>
          <internalNodes>
            0 -1 440 1.2043961323797703e-03</internalNodes>
          <leafValues>
            -1.4376497268676758e-01 2.3679777979850769e-01</leafValues></_>
        <_>
          <internalNodes>
            0 -1 207 3.2461054623126984e-02</internalNodes>
          <leafValues>
            6.1647064983844757e-02 -5.3529518842697144e-01</leafValues></_>
        <_>
          <internalNodes>
            0 -1 531 4.8174973926506937e-04</internalNodes>
          <leafValues>
            8.0613575875759125e-02 -3.4887263178825378e-01</leafValues></_>
        <_>
          <internalNodes>
            0 -1 481 1.9076326861977577e-04</internalNodes>
          <leafValues>
            -1.5940579771995544e-01 1.7110326886177063e-01</leafValues></_>
        <_>
          <internalNodes>
            0 -1 367 7.1957642212510109e-03</internalNodes>
          <leafValues>
            -1.4338891208171844e-01 2.0438168942928314e-01</leafValues></_>
        <_>
          <internalNodes>
            0 -1 210 -2.0468304865062237e-03</internalNodes>
          <leafValues>
            -5.9780347347259521e-01 4.5064881443977356e-02</leafValues></_>
        <_>
          <internalNodes>
            0 -1 520 -3.3039739355444908e-04</internalNodes>
          <leafValues>
            2.1557325124740601e-01 -1.2052072584629059e-01</leafValues></_>
        <_>
          <internalNodes>
            0 -1 530 7.3934282409027219e-04</internalNodes>
          <leafValues>
            8.6686745285987854e-02 -3.3246517181396484e-01</leafValues></_>
        <_>
          <internalNodes>
            0 -1 463 -2.0764450891874731e-04</internalNodes>
          <leafValues>
            1.6592699289321899e-01 -1.6396509110927582e-01</leafValues></_>
        <_>
          <internalNodes>
            0 -1 46 9.5181085634976625e-04</internalNodes>
          <leafValues>
            1.2658327817916870e-01 -2.1450525522232056e-01</leafValues></_>
        <_>
          <internalNodes>
            0 -1 434 -5.5462151067331433e-04</internalNodes>
          <leafValues>
            2.7282106876373291e-01 -1.1291742324829102e-01</leafValues></_>
        <_>
          <internalNodes>
            0 -1 403 8.2070091739296913e-03</internalNodes>
          <leafValues>
            3.4999009221792221e-02 -8.7703806161880493e-01</leafValues></_>
        <_>
          <internalNodes>
            0 -1 14 -3.7503968924283981e-03</internalNodes>
          <leafValues>
            -4.6593621373176575e-01 4.8563878983259201e-02</leafValues></_>
        <_>
          <internalNodes>
            0 -1 469 -7.7366887126117945e-04</internalNodes>
          <leafValues>
            3.6622104048728943e-01 -7.6477907598018646e-02</leafValues></_>
        <_>
          <internalNodes>
            0 -1 58 2.1112174727022648e-03</internalNodes>
          <leafValues>
            4.6964794397354126e-02 -5.8669960498809814e-01</leafValues></_>
        <_>
          <internalNodes>
            0 -1 35 -4.7956807538866997e-03</internalNodes>
          <leafValues>
            1.9471065700054169e-01 -1.3489034771919250e-01</leafValues></_>
        <_>
          <internalNodes>
            0 -1 49 1.1632916331291199e-01</internalNodes>
          <leafValues>
            6.4331538975238800e-02 -4.3599253892898560e-01</leafValues></_>
        <_>
          <internalNodes>
            0 -1 97 3.3250637352466583e-03</internalNodes>
          <leafValues>
            -1.1009588837623596e-01 2.4613898992538452e-01</leafValues></_>
        <_>
          <internalNodes>
            0 -1 111 -6.5079443156719208e-03</internalNodes>
          <leafValues>
            -2.0115025341510773e-01 1.7078003287315369e-01</leafValues></_>
        <_>
          <internalNodes>
            0 -1 151 -1.0426642838865519e-03</internalNodes>
          <leafValues>
            3.0518603324890137e-01 -8.9360170066356659e-02</leafValues></_>
        <_>
          <internalNodes>
            0 -1 132 6.5944390371441841e-04</internalNodes>
          <leafValues>
            8.4702834486961365e-02 -3.2471013069152832e-01</leafValues></_></weakClassifiers></_>
    <!-- stage 9 -->
    <_>
      <maxWeakCount>53</maxWeakCount>
      <stageThreshold>-6.8727260828018188e-01</stageThreshold>
      <weakClassifiers>
        <_>
          <internalNodes>
            0 -1 291 -1.1502619599923491e-03</internalNodes>
          <leafValues>
            6.0479038953781128e-01 1.5415020287036896e-01</leafValues></_>
        <_>
          <internalNodes>
            0 -1 220 -2.7845208533108234e-03</internalNodes>
          <leafValues>
            4.1462182998657227e-01 -7.1522124111652374e-02</leafValues></_>
        <_>
          <internalNodes>
            0 -1 227 -1.8568724626675248e-03</internalNodes>
          <leafValues>
            3.0262386798858643e-01 -1.4037859439849854e-01</leafValues></_>
        <_>
          <internalNodes>
            0 -1 493 -2.3324710491579026e-04</internalNodes>
          <leafValues>
            2.5478073954582214e-01 -1.4420147240161896e-01</leafValues></_>
        <_>
          <internalNodes>
            0 -1 187 1.2786963488906622e-03</internalNodes>
          <leafValues>
            -1.0560581833124161e-01 2.8430625796318054e-01</leafValues></_>
        <_>
          <internalNodes>
            0 -1 319 -6.1083829496055841e-04</internalNodes>
          <leafValues>
            1.8402239680290222e-01 -1.6986411809921265e-01</leafValues></_>
        <_>
          <internalNodes>
            0 -1 135 6.0646524652838707e-03</internalNodes>
          <leafValues>
            -1.0962301492691040e-01 3.0986416339874268e-01</leafValues></_>
        <_>
          <internalNodes>
            0 -1 482 -2.5901554618030787e-03</internalNodes>
          <leafValues>
            2.1518875658512115e-01 -1.4688992500305176e-01</leafValues></_>
        <_>
          <internalNodes>
            0 -1 102 3.8158066570758820e-02</internalNodes>
          <leafValues>
            1.0654302686452866e-01 -3.1195253133773804e-01</leafValues></_>
        <_>
          <internalNodes>
            0 -1 125 1.2889406643807888e-03</internalNodes>
          <leafValues>
            -1.0971576720476151e-01 2.7196353673934937e-01</leafValues></_>
        <_>
          <internalNodes>
            0 -1 379 8.8929920457303524e-04</internalNodes>
          <leafValues>
            7.4422352015972137e-02 -4.8276999592781067e-01</leafValues></_>
        <_>
          <internalNodes>
            0 -1 339 1.6320910304784775e-02</internalNodes>
          <leafValues>
            3.2284807413816452e-02 -7.9302018880844116e-01</leafValues></_>
        <_>
          <internalNodes>
            0 -1 296 -2.6219566352665424e-03</internalNodes>
          <leafValues>
            3.1929197907447815e-01 -9.7537629306316376e-02</leafValues></_>
        <_>
          <internalNodes>
            0 -1 63 1.0135089978575706e-02</internalNodes>
          <leafValues>
            1.3447098433971405e-01 -2.3250663280487061e-01</leafValues></_>
        <_>
          <internalNodes>
            0 -1 184 1.5315038152039051e-02</internalNodes>
          <leafValues>
            -7.0021316409111023e-02 4.4777312874794006e-01</leafValues></_>
        <_>
          <internalNodes>
            0 -1 437 -1.2242636643350124e-02</internalNodes>
          <leafValues>
            2.2738501429557800e-01 -1.3304650783538818e-01</leafValues></_>
        <_>
          <internalNodes>
            0 -1 314 -1.2738861842080951e-03</internalNodes>
          <leafValues>
            -4.4609984755516052e-01 6.5864995121955872e-02</leafValues></_>
        <_>
          <internalNodes>
            0 -1 320 1.6683135181665421e-02</internalNodes>
          <leafValues>
            3.8855016231536865e-02 -6.5455907583236694e-01</leafValues></_>
        <_>
          <internalNodes>
            0 -1 387 3.8979337550699711e-03</internalNodes>
          <leafValues>
            -5.8083683252334595e-02 5.3440946340560913e-01</leafValues></_>
        <_>
          <internalNodes>
            0 -1 391 -3.8463628152385354e-04</internalNodes>
          <leafValues>
            2.9005640745162964e-01 -1.1729995161294937e-01</leafValues></_>
        <_>
          <internalNodes>
            0 -1 321 -2.3974543437361717e-03</internalNodes>
          <leafValues>
            3.3405333757400513e-01 -9.3785732984542847e-02</leafValues></_>
        <_>
          <internalNodes>
            0 -1 421 -2.7777678333222866e-03</internalNodes>
          <leafValues>
            -3.9624032378196716e-01 7.8917764127254486e-02</leafValues></_>
        <_>
          <internalNodes>
            0 -1 419 7.5220190919935703e-03</internalNodes>
          <leafValues>
            4.3952427804470062e-02 -6.6579842567443848e-01</leafValues></_>
        <_>
          <internalNodes>
            0 -1 141 -1.7752588028088212e-03</internalNodes>
          <leafValues>
            -3.8235881924629211e-01 7.4243821203708649e-02</leafValues></_>
        <_>
          <internalNodes>
            0 -1 22 -7.0957909338176250e-04</internalNodes>
          <leafValues>
            1.7417883872985840e-01 -1.7189607024192810e-01</leafValues></_>
        <_>
          <internalNodes>
            0 -1 395 -6.1358148232102394e-03</internalNodes>
          <leafValues>
            -8.4996396303176880e-01 3.1050041317939758e-02</leafValues></_>
        <_>
          <internalNodes>
            0 -1 3 2.9480853118002415e-03</internalNodes>
          <leafValues>
            4.0093589574098587e-02 -5.8603531122207642e-01</leafValues></_>
        <_>
          <internalNodes>
            0 -1 263 -2.0072066690772772e-03</internalNodes>
          <leafValues>
            4.2918100953102112e-01 -6.6037222743034363e-02</leafValues></_>
        <_>
          <internalNodes>
            0 -1 267 -3.0107470229268074e-03</internalNodes>
          <leafValues>
            3.5551312565803528e-01 -7.6769724488258362e-02</leafValues></_>
        <_>
          <internalNodes>
            0 -1 308 5.1660393364727497e-03</internalNodes>
          <leafValues>
            -7.5542390346527100e-02 3.6656427383422852e-01</leafValues></_>
        <_>
          <internalNodes>
            0 -1 7 -3.7508692592382431e-02</internalNodes>
          <leafValues>
            -6.2084662914276123e-01 5.2000679075717926e-02</leafValues></_>
        <_>
          <internalNodes>
            0 -1 110 -5.3195446729660034e-02</internalNodes>
          <leafValues>
            -4.7575291991233826e-01 5.6801591068506241e-02</leafValues></_>
        <_>
          <internalNodes>
            0 -1 100 -4.5073898509144783e-03</internalNodes>
          <leafValues>
            5.0076514482498169e-01 -6.0585789382457733e-02</leafValues></_>
        <_>
          <internalNodes>
            0 -1 456 1.5048887580633163e-03</internalNodes>
          <leafValues>
            6.7307315766811371e-02 -4.4219902157783508e-01</leafValues></_>
        <_>
          <internalNodes>
            0 -1 442 -5.4855342023074627e-04</internalNodes>
          <leafValues>
            3.0974423885345459e-01 -8.4179326891899109e-02</leafValues></_>
        <_>
          <internalNodes>
            0 -1 442 4.9262365791946650e-04</internalNodes>
          <leafValues>
            -1.4800633490085602e-01 2.6969709992408752e-01</leafValues></_>
        <_>
          <internalNodes>
            0 -1 158 2.9049563454464078e-04</internalNodes>
          <leafValues>
            1.3035199046134949e-01 -2.2039954364299774e-01</leafValues></_>
        <_>
          <internalNodes>
            0 -1 61 -3.5055935382843018e-02</internalNodes>
          <leafValues>
            2.4586974084377289e-01 -1.1304127424955368e-01</leafValues></_>
        <_>
          <internalNodes>
            0 -1 244 -9.3475012108683586e-03</internalNodes>
          <leafValues>
            -3.6055347323417664e-01 8.6212627589702606e-02</leafValues></_>
        <_>
          <internalNodes>
            0 -1 86 -1.4970124466344714e-03</internalNodes>
          <leafValues>
            -3.4001457691192627e-01 7.9401195049285889e-02</leafValues></_>
        <_>
          <internalNodes>
            0 -1 294 6.4083542674779892e-03</internalNodes>
          <leafValues>
            4.1955295950174332e-02 -6.8324601650238037e-01</leafValues></_>
        <_>
          <internalNodes>
            0 -1 240 1.5729418373666704e-04</internalNodes>
          <leafValues>
            -1.7964842915534973e-01 1.5486949682235718e-01</leafValues></_>
        <_>
          <internalNodes>
            0 -1 382 -1.1522169224917889e-03</internalNodes>
          <leafValues>
            1.5069903433322906e-01 -1.7717009782791138e-01</leafValues></_>
        <_>
          <internalNodes>
            0 -1 243 -4.7760183224454522e-04</internalNodes>
          <leafValues>
            2.1760363876819611e-01 -1.2672412395477295e-01</leafValues></_>
        <_>
          <internalNodes>
            0 -1 50 -1.2872583232820034e-02</internalNodes>
          <leafValues>
            3.7375897169113159e-01 -7.5842358171939850e-02</leafValues></_>
        <_>
          <internalNodes>
            0 -1 195 3.1293714419007301e-03</internalNodes>
          <leafValues>
            -6.7120760679244995e-02 3.9201176166534424e-01</leafValues></_>
        <_>
          <internalNodes>
            0 -1 98 3.2691434025764465e-03</internalNodes>
          <leafValues>
            6.0268003493547440e-02 -5.1368057727813721e-01</leafValues></_>
        <_>
          <internalNodes>
            0 -1 90 1.0278669651597738e-03</internalNodes>
          <leafValues>
            9.2150345444679260e-02 -2.8878110647201538e-01</leafValues></_>
        <_>
          <internalNodes>
            0 -1 159 -1.3882975326851010e-04</internalNodes>
          <leafValues>
            1.8523603677749634e-01 -1.5986956655979156e-01</leafValues></_>
        <_>
          <internalNodes>
            0 -1 87 3.1971842050552368e-02</internalNodes>
          <leafValues>
            3.8739938288927078e-02 -6.4966809749603271e-01</leafValues></_>
        <_>
          <internalNodes>
            0 -1 53 -1.1382496450096369e-03</internalNodes>
          <leafValues>
            -3.6810034513473511e-01 6.8681217730045319e-02</leafValues></_>
        <_>
          <internalNodes>
            0 -1 250 -2.7844696305692196e-03</internalNodes>
          <leafValues>
            3.1994009017944336e-01 -8.0384835600852966e-02</leafValues></_>
        <_>
          <internalNodes>
            0 -1 221 -3.3063650131225586e-02</internalNodes>
          <leafValues>
            4.2608237266540527e-01 -6.2041029334068298e-02</leafValues></_></weakClassifiers></_>
    <!-- stage 10 -->
    <_>
      <maxWeakCount>46</maxWeakCount>
      <stageThreshold>-5.9860396385192871e-01</stageThreshold>
      <weakClassifiers>
        <_>
          <internalNodes>
            0 -1 293 -2.2565014660358429e-03</internalNodes>
          <leafValues>
            5.7142859697341919e-01 1.8322981894016266e-01</leafValues></_>
        <_>
          <internalNodes>
            0 -1 322 -2.6259445585310459e-03</internalNodes>
          <leafValues>
            2.9566356539726257e-01 -1.0582451522350311e-01</leafValues></_>
        <_>
          <internalNodes>
            0 -1 468 -8.9731428306549788e-04</internalNodes>
          <leafValues>
            2.9495078325271606e-01 -1.0804004967212677e-01</leafValues></_>
        <_>
          <internalNodes>
            0 -1 525 1.8730930751189590e-03</internalNodes>
          <leafValues>
            5.5649086833000183e-02 -3.9083912968635559e-01</leafValues></_>
        <_>
          <internalNodes>
            0 -1 253 -5.9336062986403704e-04</internalNodes>
          <leafValues>
            -3.4206432104110718e-01 9.3238793313503265e-02</leafValues></_>
        <_>
          <internalNodes>
            0 -1 511 -2.6143627474084496e-04</internalNodes>
          <leafValues>
            2.0374992489814758e-01 -1.5907880663871765e-01</leafValues></_>
        <_>
          <internalNodes>
            0 -1 169 -1.4799962518736720e-03</internalNodes>
          <leafValues>
            -4.3937718868255615e-01 7.6005429029464722e-02</leafValues></_>
        <_>
          <internalNodes>
            0 -1 121 1.9924272783100605e-03</internalNodes>
          <leafValues>
            -1.0156260430812836e-01 3.0816921591758728e-01</leafValues></_>
        <_>
          <internalNodes>
            0 -1 486 4.8016157234087586e-04</internalNodes>
          <leafValues>
            -1.3877108693122864e-01 2.6544398069381714e-01</leafValues></_>
        <_>
          <internalNodes>
            0 -1 391 1.0644509457051754e-03</internalNodes>
          <leafValues>
            -8.1522546708583832e-02 3.6052876710891724e-01</leafValues></_>
        <_>
          <internalNodes>
            0 -1 529 -1.6757473349571228e-03</internalNodes>
          <leafValues>
            -4.2901828885078430e-01 7.5075514614582062e-02</leafValues></_>
        <_>
          <internalNodes>
            0 -1 350 1.1427772697061300e-03</internalNodes>
          <leafValues>
            -1.2020713835954666e-01 2.7734136581420898e-01</leafValues></_>
        <_>
          <internalNodes>
            0 -1 285 2.2815330885350704e-03</internalNodes>
          <leafValues>
            -9.4058230519294739e-02 3.4880435466766357e-01</leafValues></_>
        <_>
          <internalNodes>
            0 -1 326 -4.5990325510501862e-02</internalNodes>
          <leafValues>
            -4.2826586961746216e-01 7.3217682540416718e-02</leafValues></_>
        <_>
          <internalNodes>
            0 -1 120 6.0864567058160901e-04</internalNodes>
          <leafValues>
            -9.1760419309139252e-02 3.2256677746772766e-01</leafValues></_>
        <_>
          <internalNodes>
            0 -1 133 2.5984556414186954e-03</internalNodes>
          <leafValues>
            -1.1495541781187057e-01 2.5456207990646362e-01</leafValues></_>
        <_>
          <internalNodes>
            0 -1 47 -1.7306527588516474e-03</internalNodes>
          <leafValues>
            -5.1780450344085693e-01 6.2437891960144043e-02</leafValues></_>
        <_>
          <internalNodes>
            0 -1 129 -1.1416364461183548e-02</internalNodes>
          <leafValues>
            -5.7580554485321045e-01 4.6336673200130463e-02</leafValues></_>
        <_>
          <internalNodes>
            0 -1 105 1.2998588383197784e-02</internalNodes>
          <leafValues>
            6.3152052462100983e-02 -4.7290313243865967e-01</leafValues></_>
        <_>
          <internalNodes>
            0 -1 501 8.0047943629324436e-04</internalNodes>
          <leafValues>
            8.8468432426452637e-02 -3.1196361780166626e-01</leafValues></_>
        <_>
          <internalNodes>
            0 -1 119 3.7775843520648777e-04</internalNodes>
          <leafValues>
            -1.3363406062126160e-01 2.0795978605747223e-01</leafValues></_>
        <_>
          <internalNodes>
            0 -1 241 -4.2746798135340214e-03</internalNodes>
          <leafValues>
            -7.4942195415496826e-01 4.3095245957374573e-02</leafValues></_>
        <_>
          <internalNodes>
            0 -1 515 -4.1995849460363388e-03</internalNodes>
          <leafValues>
            -5.4714602231979370e-01 4.7718007117509842e-02</leafValues></_>
        <_>
          <internalNodes>
            0 -1 492 -1.0587379074422643e-04</internalNodes>
          <leafValues>
            1.9902072846889496e-01 -1.3608172535896301e-01</leafValues></_>
        <_>
          <internalNodes>
            0 -1 150 -2.6033464819192886e-03</internalNodes>
          <leafValues>
            2.5980806350708008e-01 -1.1150901764631271e-01</leafValues></_>
        <_>
          <internalNodes>
            0 -1 222 -3.1425543129444122e-03</internalNodes>
          <leafValues>
            3.6615061759948730e-01 -7.8365713357925415e-02</leafValues></_>
        <_>
          <internalNodes>
            0 -1 76 2.4707011878490448e-02</internalNodes>
          <leafValues>
            8.4179759025573730e-02 -3.9570188522338867e-01</leafValues></_>
        <_>
          <internalNodes>
            0 -1 390 1.1827249545603991e-03</internalNodes>
          <leafValues>
            -1.0120828449726105e-01 3.1129232048988342e-01</leafValues></_>
        <_>
          <internalNodes>
            0 -1 39 -7.7009405940771103e-03</internalNodes>
          <leafValues>
            -5.9598070383071899e-01 5.6075815111398697e-02</leafValues></_>
        <_>
          <internalNodes>
            0 -1 438 3.1850958475843072e-04</internalNodes>
          <leafValues>
            -1.4051930606365204e-01 1.9166998565196991e-01</leafValues></_>
        <_>
          <internalNodes>
            0 -1 408 -3.2096257200464606e-04</internalNodes>
          <leafValues>
            1.5096390247344971e-01 -1.8423214554786682e-01</leafValues></_>
        <_>
          <internalNodes>
            0 -1 44 1.5603247284889221e-01</internalNodes>
          <leafValues>
            -6.0923408716917038e-02 4.6507591009140015e-01</leafValues></_>
        <_>
          <internalNodes>
            0 -1 301 9.9226762540638447e-04</internalNodes>
          <leafValues>
            1.0410410165786743e-01 -2.6928219199180603e-01</leafValues></_>
        <_>
          <internalNodes>
            0 -1 521 -6.8668986205011606e-04</internalNodes>
          <leafValues>
            3.1032812595367432e-01 -8.7557815015316010e-02</leafValues></_>
        <_>
          <internalNodes>
            0 -1 472 -2.0298056304454803e-02</internalNodes>
          <leafValues>
            -3.4012812376022339e-01 8.3358451724052429e-02</leafValues></_>
        <_>
          <internalNodes>
            0 -1 411 1.4019887894392014e-03</internalNodes>
          <leafValues>
            -1.2144593894481659e-01 2.4220933020114899e-01</leafValues></_>
        <_>
          <internalNodes>
            0 -1 95 6.7902961745858192e-04</internalNodes>
          <leafValues>
            -1.3412204384803772e-01 2.1980923414230347e-01</leafValues></_>
        <_>
          <internalNodes>
            0 -1 458 2.1314304322004318e-03</internalNodes>
          <leafValues>
            8.9094385504722595e-02 -3.2333379983901978e-01</leafValues></_>
        <_>
          <internalNodes>
            0 -1 88 3.2170452177524567e-03</internalNodes>
          <leafValues>
            1.1887595802545547e-01 -2.3061823844909668e-01</leafValues></_>
        <_>
          <internalNodes>
            0 -1 402 2.6952784508466721e-02</internalNodes>
          <leafValues>
            4.2436029762029648e-02 -6.2282985448837280e-01</leafValues></_>
        <_>
          <internalNodes>
            0 -1 504 -2.9311985708773136e-03</internalNodes>
          <leafValues>
            2.4677577614784241e-01 -1.0776377469301224e-01</leafValues></_>
        <_>
          <internalNodes>
            0 -1 202 -6.6083529964089394e-03</internalNodes>
          <leafValues>
            3.4912562370300293e-01 -7.1037620306015015e-02</leafValues></_>
        <_>
          <internalNodes>
            0 -1 354 9.5113972201943398e-03</internalNodes>
          <leafValues>
            6.7153796553611755e-02 -4.1945213079452515e-01</leafValues></_>
        <_>
          <internalNodes>
            0 -1 318 -2.8401169925928116e-02</internalNodes>
          <leafValues>
            3.2137820124626160e-01 -9.0351007878780365e-02</leafValues></_>
        <_>
          <internalNodes>
            0 -1 275 -1.0208880994468927e-03</internalNodes>
          <leafValues>
            -5.1026600599288940e-01 5.2540976554155350e-02</leafValues></_>
        <_>
          <internalNodes>
            0 -1 104 1.5255762264132500e-02</internalNodes>
          <leafValues>
            3.6272589117288589e-02 -6.8125659227371216e-01</leafValues></_></weakClassifiers></_>
    <!-- stage 11 -->
    <_>
      <maxWeakCount>53</maxWeakCount>
      <stageThreshold>-6.5323084592819214e-01</stageThreshold>
      <weakClassifiers>
        <_>
          <internalNodes>
            0 -1 290 -1.4568262267857790e-03</internalNodes>
          <leafValues>
            -2.5842696428298950e-01 3.8813737034797668e-01</leafValues></_>
        <_>
          <internalNodes>
            0 -1 75 -5.6065246462821960e-03</internalNodes>
          <leafValues>
            -2.5042393803596497e-01 1.5661862492561340e-01</leafValues></_>
        <_>
          <internalNodes>
            0 -1 18 2.2756173275411129e-03</internalNodes>
          <leafValues>
            -2.0624667406082153e-01 1.7668104171752930e-01</leafValues></_>
        <_>
          <internalNodes>
            0 -1 267 -3.4285348374396563e-03</internalNodes>
          <leafValues>
            4.2555642127990723e-01 -8.7832972407341003e-02</leafValues></_>
        <_>
          <internalNodes>
            0 -1 302 -1.9278861582279205e-03</internalNodes>
          <leafValues>
            2.3842209577560425e-01 -1.3348564505577087e-01</leafValues></_>
        <_>
          <internalNodes>
            0 -1 385 -1.3154288753867149e-03</internalNodes>
          <leafValues>
            3.0179104208946228e-01 -1.1540281027555466e-01</leafValues></_>
        <_>
          <internalNodes>
            0 -1 510 2.3699540179222822e-04</internalNodes>
          <leafValues>
            -1.5568499267101288e-01 2.0031560957431793e-01</leafValues></_>
        <_>
          <internalNodes>
            0 -1 191 -7.7331364154815674e-03</internalNodes>
          <leafValues>
            3.2856690883636475e-01 -8.4793917834758759e-02</leafValues></_>
        <_>
          <internalNodes>
            0 -1 331 -1.5565140638500452e-03</internalNodes>
          <leafValues>
            -4.4989779591560364e-01 6.4860641956329346e-02</leafValues></_>
        <_>
          <internalNodes>
            0 -1 163 2.1611507982015610e-02</internalNodes>
          <leafValues>
            5.5898580700159073e-02 -4.8684966564178467e-01</leafValues></_>
        <_>
          <internalNodes>
            0 -1 517 7.9747643321752548e-03</internalNodes>
          <leafValues>
            5.9824034571647644e-02 -4.7829714417457581e-01</leafValues></_>
        <_>
          <internalNodes>
            0 -1 424 3.2459837384521961e-03</internalNodes>
          <leafValues>
            -1.0133133828639984e-01 2.7394211292266846e-01</leafValues></_>
        <_>
          <internalNodes>
            0 -1 433 -1.0696334764361382e-02</internalNodes>
          <leafValues>
            -4.1405045986175537e-01 6.1490919440984726e-02</leafValues></_>
        <_>
          <internalNodes>
            0 -1 190 -1.8334048800170422e-03</internalNodes>
          <leafValues>
            3.0066239833831787e-01 -9.2197887599468231e-02</leafValues></_>
        <_>
          <internalNodes>
            0 -1 106 -3.3575943671166897e-03</internalNodes>
          <leafValues>
            -5.6524187326431274e-01 5.8740600943565369e-02</leafValues></_>
        <_>
          <internalNodes>
            0 -1 154 -2.1387019660323858e-03</internalNodes>
          <leafValues>
            2.7239382266998291e-01 -1.0228636115789413e-01</leafValues></_>
        <_>
          <internalNodes>
            0 -1 17 4.9771292833611369e-04</internalNodes>
          <leafValues>
            8.1806309521198273e-02 -3.4603533148765564e-01</leafValues></_>
        <_>
          <internalNodes>
            0 -1 203 -2.0438106730580330e-03</internalNodes>
          <leafValues>
            2.0396715402603149e-01 -1.2292970716953278e-01</leafValues></_>
        <_>
          <internalNodes>
            0 -1 303 -3.6199004389345646e-03</internalNodes>
          <leafValues>
            3.4612616896629333e-01 -7.9820327460765839e-02</leafValues></_>
        <_>
          <internalNodes>
            0 -1 232 1.0035238228738308e-02</internalNodes>
          <leafValues>
            -1.2934726476669312e-01 2.2704297304153442e-01</leafValues></_>
        <_>
          <internalNodes>
            0 -1 310 -7.1678753010928631e-04</internalNodes>
          <leafValues>
            -3.4535413980484009e-01 8.6309172213077545e-02</leafValues></_>
        <_>
          <internalNodes>
            0 -1 410 -2.0280918106436729e-03</internalNodes>
          <leafValues>
            -5.1670873165130615e-01 5.5058810859918594e-02</leafValues></_>
        <_>
          <internalNodes>
            0 -1 153 -4.4869706034660339e-03</internalNodes>
          <leafValues>
            -5.5757206678390503e-01 4.8422053456306458e-02</leafValues></_>
        <_>
          <internalNodes>
            0 -1 416 -5.4745585657656193e-04</internalNodes>
          <leafValues>
            1.6041778028011322e-01 -1.7563986778259277e-01</leafValues></_>
        <_>
          <internalNodes>
            0 -1 470 -1.0440207552164793e-03</internalNodes>
          <leafValues>
            3.1415992975234985e-01 -1.0037462413311005e-01</leafValues></_>
        <_>
          <internalNodes>
            0 -1 233 6.0713518178090453e-04</internalNodes>
          <leafValues>
            7.5130090117454529e-02 -3.5889503359794617e-01</leafValues></_>
        <_>
          <internalNodes>
            0 -1 339 8.6054634302854538e-03</internalNodes>
          <leafValues>
            6.1189573258161545e-02 -4.5658382773399353e-01</leafValues></_>
        <_>
          <internalNodes>
            0 -1 491 3.1441409373655915e-04</internalNodes>
          <leafValues>
            -1.2567073106765747e-01 2.4139197170734406e-01</leafValues></_>
        <_>
          <internalNodes>
            0 -1 1 9.2082276940345764e-02</internalNodes>
          <leafValues>
            5.9323579072952271e-02 -4.9187546968460083e-01</leafValues></_>
        <_>
          <internalNodes>
            0 -1 198 2.3936659097671509e-02</internalNodes>
          <leafValues>
            1.0820662230253220e-01 -2.5805172324180603e-01</leafValues></_>
        <_>
          <internalNodes>
            0 -1 224 2.6125479489564896e-03</internalNodes>
          <leafValues>
            -6.6783629357814789e-02 3.6994889378547668e-01</leafValues></_>
        <_>
          <internalNodes>
            0 -1 413 7.8200735151767731e-04</internalNodes>
          <leafValues>
            -1.5196232497692108e-01 1.7227230966091156e-01</leafValues></_>
        <_>
          <internalNodes>
            0 -1 2 -3.4774006344377995e-03</internalNodes>
          <leafValues>
            1.3165029883384705e-01 -2.0504525303840637e-01</leafValues></_>
        <_>
          <internalNodes>
            0 -1 70 1.0675776284188032e-03</internalNodes>
          <leafValues>
            5.6683171540498734e-02 -5.5459302663803101e-01</leafValues></_>
        <_>
          <internalNodes>
            0 -1 190 -3.6378602962940931e-03</internalNodes>
          <leafValues>
            5.2784800529479980e-01 -6.2473498284816742e-02</leafValues></_>
        <_>
          <internalNodes>
            0 -1 256 9.3819410540163517e-04</internalNodes>
          <leafValues>
            9.6228092908859253e-02 -3.0794781446456909e-01</leafValues></_>
        <_>
          <internalNodes>
            0 -1 125 -1.8720870139077306e-03</internalNodes>
          <leafValues>
            3.4341746568679810e-01 -8.7155178189277649e-02</leafValues></_>
        <_>
          <internalNodes>
            0 -1 255 -1.3930471614003181e-03</internalNodes>
          <leafValues>
            -4.5801967382431030e-01 6.3359580934047699e-02</leafValues></_>
        <_>
          <internalNodes>
            0 -1 500 1.5510169323533773e-03</internalNodes>
          <leafValues>
            3.2010033726692200e-02 -6.9276422262191772e-01</leafValues></_>
        <_>
          <internalNodes>
            0 -1 342 -6.0049659805372357e-04</internalNodes>
          <leafValues>
            1.8848730623722076e-01 -1.3870993256568909e-01</leafValues></_>
        <_>
          <internalNodes>
            0 -1 461 -2.9216492548584938e-03</internalNodes>
          <leafValues>
            2.2297558188438416e-01 -1.1685024946928024e-01</leafValues></_>
        <_>
          <internalNodes>
            0 -1 455 -5.7365186512470245e-03</internalNodes>
          <leafValues>
            -2.8496128320693970e-01 8.6932577192783356e-02</leafValues></_>
        <_>
          <internalNodes>
            0 -1 490 1.1236473219469190e-03</internalNodes>
          <leafValues>
            -1.5061686933040619e-01 1.7940860986709595e-01</leafValues></_>
        <_>
          <internalNodes>
            0 -1 457 -1.4243728946894407e-03</internalNodes>
          <leafValues>
            -2.3097008466720581e-01 1.0920482873916626e-01</leafValues></_>
        <_>
          <internalNodes>
            0 -1 427 -7.6554913539439440e-04</internalNodes>
          <leafValues>
            2.4928809702396393e-01 -1.1269922554492950e-01</leafValues></_>
        <_>
          <internalNodes>
            0 -1 94 1.5391090419143438e-03</internalNodes>
          <leafValues>
            -8.7929747998714447e-02 3.1382283568382263e-01</leafValues></_>
        <_>
          <internalNodes>
            0 -1 254 -1.5133470296859741e-03</internalNodes>
          <leafValues>
            2.8072184324264526e-01 -9.6969097852706909e-02</leafValues></_>
        <_>
          <internalNodes>
            0 -1 28 -1.9071238115429878e-02</internalNodes>
          <leafValues>
            -6.4030706882476807e-01 5.0735957920551300e-02</leafValues></_>
        <_>
          <internalNodes>
            0 -1 499 2.0258773583918810e-03</internalNodes>
          <leafValues>
            3.0511118471622467e-02 -8.2553857564926147e-01</leafValues></_>
        <_>
          <internalNodes>
            0 -1 478 -6.7990482784807682e-04</internalNodes>
          <leafValues>
            1.7892158031463623e-01 -1.6164930164813995e-01</leafValues></_>
        <_>
          <internalNodes>
            0 -1 147 -3.6075934767723083e-03</internalNodes>
          <leafValues>
            -8.7466061115264893e-01 3.2042607665061951e-02</leafValues></_>
        <_>
          <internalNodes>
            0 -1 214 -1.9799808505922556e-03</internalNodes>
          <leafValues>
            2.9731506109237671e-01 -9.5278963446617126e-02</leafValues></_>
        <_>
          <internalNodes>
            0 -1 42 -9.5908725634217262e-03</internalNodes>
          <leafValues>
            -5.7472318410873413e-01 4.8137307167053223e-02</leafValues></_></weakClassifiers></_>
    <!-- stage 12 -->
    <_>
      <maxWeakCount>59</maxWeakCount>
      <stageThreshold>-7.4336719512939453e-01</stageThreshold>
      <weakClassifiers>
        <_>
          <internalNodes>
            0 -1 460 -6.5979728242382407e-04</internalNodes>
          <leafValues>
            5.1909184455871582e-01 1.7418214678764343e-01</leafValues></_>
        <_>
          <internalNodes>
            0 -1 356 -1.0722992010414600e-03</internalNodes>
          <leafValues>
            3.4480029344558716e-01 -9.4739519059658051e-02</leafValues></_>
        <_>
          <internalNodes>
            0 -1 312 -1.0704387677833438e-03</internalNodes>
          <leafValues>
            -4.9907323718070984e-01 6.4346805214881897e-02</leafValues></_>
        <_>
          <internalNodes>
            0 -1 388 -1.3462316710501909e-03</internalNodes>
          <leafValues>
            2.3302604258060455e-01 -1.7819650471210480e-01</leafValues></_>
        <_>
          <internalNodes>
            0 -1 304 -5.2446313202381134e-03</internalNodes>
          <leafValues>
            3.5399666428565979e-01 -8.3985909819602966e-02</leafValues></_>
        <_>
          <internalNodes>
            0 -1 351 -1.7610602080821991e-03</internalNodes>
          <leafValues>
            -5.0291758775711060e-01 5.6973673403263092e-02</leafValues></_>
        <_>
          <internalNodes>
            0 -1 452 9.3892086297273636e-03</internalNodes>
          <leafValues>
            3.3386774361133575e-02 -6.9654607772827148e-01</leafValues></_>
        <_>
          <internalNodes>
            0 -1 171 -3.3179246820509434e-03</internalNodes>
          <leafValues>
            -6.8607980012893677e-01 5.1332861185073853e-02</leafValues></_>
        <_>
          <internalNodes>
            0 -1 176 2.0174751989543438e-03</internalNodes>
          <leafValues>
            3.5399790853261948e-02 -5.7562279701232910e-01</leafValues></_>
        <_>
          <internalNodes>
            0 -1 38 5.7438653893768787e-03</internalNodes>
          <leafValues>
            -6.8114392459392548e-02 4.2130520939826965e-01</leafValues></_>
        <_>
          <internalNodes>
            0 -1 306 6.1824992299079895e-03</internalNodes>
          <leafValues>
            -8.6533509194850922e-02 3.3312293887138367e-01</leafValues></_>
        <_>
          <internalNodes>
            0 -1 126 -2.9878942295908928e-03</internalNodes>
          <leafValues>
            2.1625833213329315e-01 -1.3519139587879181e-01</leafValues></_>
        <_>
          <internalNodes>
            0 -1 449 -6.0225995257496834e-03</internalNodes>
          <leafValues>
            -4.7479104995727539e-01 6.0898955911397934e-02</leafValues></_>
        <_>
          <internalNodes>
            0 -1 29 -4.3346686288714409e-04</internalNodes>
          <leafValues>
            -3.1327506899833679e-01 8.5402868688106537e-02</leafValues></_>
        <_>
          <internalNodes>
            0 -1 234 -4.2718893382698298e-04</internalNodes>
          <leafValues>
            -2.9388216137886047e-01 8.9192457497119904e-02</leafValues></_>
        <_>
          <internalNodes>
            0 -1 464 -7.3729973519220948e-04</internalNodes>
          <leafValues>
            3.0717334151268005e-01 -9.2236518859863281e-02</leafValues></_>
        <_>
          <internalNodes>
            0 -1 506 6.1076902784407139e-04</internalNodes>
          <leafValues>
            -1.3108266890048981e-01 2.1605832874774933e-01</leafValues></_>
        <_>
          <internalNodes>
            0 -1 447 -2.0808326080441475e-03</internalNodes>
          <leafValues>
            -5.2225404977798462e-01 4.9493554979562759e-02</leafValues></_>
        <_>
          <internalNodes>
            0 -1 292 -3.4659127704799175e-03</internalNodes>
          <leafValues>
            -5.6788051128387451e-01 4.1648235172033310e-02</leafValues></_>
        <_>
          <internalNodes>
            0 -1 193 -8.6663744878023863e-04</internalNodes>
          <leafValues>
            2.8611916303634644e-01 -8.7499305605888367e-02</leafValues></_>
        <_>
          <internalNodes>
            0 -1 68 -4.3240897357463837e-02</internalNodes>
          <leafValues>
            3.1093996763229370e-01 -8.1692963838577271e-02</leafValues></_>
        <_>
          <internalNodes>
            0 -1 189 -1.1781121138483286e-03</internalNodes>
          <leafValues>
            2.2996658086776733e-01 -1.1472849547863007e-01</leafValues></_>
        <_>
          <internalNodes>
            0 -1 229 8.0094207078218460e-04</internalNodes>
          <leafValues>
            -1.1188009381294250e-01 2.6126778125762939e-01</leafValues></_>
        <_>
          <internalNodes>
            0 -1 156 -5.5714491754770279e-03</internalNodes>
          <leafValues>
            -4.3826547265052795e-01 6.4192958176136017e-02</leafValues></_>
        <_>
          <internalNodes>
            0 -1 446 -4.7714487300254405e-04</internalNodes>
          <leafValues>
            1.4830461144447327e-01 -1.8064559996128082e-01</leafValues></_>
        <_>
          <internalNodes>
            0 -1 375 -5.7221706956624985e-03</internalNodes>
          <leafValues>
            -5.6361180543899536e-01 4.8393625766038895e-02</leafValues></_>
        <_>
          <internalNodes>
            0 -1 519 -5.6449108524248004e-04</internalNodes>
          <leafValues>
            2.1600747108459473e-01 -1.2733671069145203e-01</leafValues></_>
        <_>
          <internalNodes>
            0 -1 239 3.5429946146905422e-03</internalNodes>
          <leafValues>
            5.5989559739828110e-02 -4.4862657785415649e-01</leafValues></_>
        <_>
          <internalNodes>
            0 -1 523 1.9201740622520447e-02</internalNodes>
          <leafValues>
            -4.1662290692329407e-02 6.7351830005645752e-01</leafValues></_>
        <_>
          <internalNodes>
            0 -1 516 8.2623190246522427e-04</internalNodes>
          <leafValues>
            -8.6168982088565826e-02 2.7501454949378967e-01</leafValues></_>
        <_>
          <internalNodes>
            0 -1 83 2.2776999976485968e-03</internalNodes>
          <leafValues>
            -1.0258635133504868e-01 2.3743014037609100e-01</leafValues></_>
        <_>
          <internalNodes>
            0 -1 170 -5.2760913968086243e-04</internalNodes>
          <leafValues>
            2.1298526227474213e-01 -1.3766668736934662e-01</leafValues></_>
        <_>
          <internalNodes>
            0 -1 145 -7.4518090113997459e-03</internalNodes>
          <leafValues>
            6.2326753139495850e-01 -4.8534240573644638e-02</leafValues></_>
        <_>
          <internalNodes>
            0 -1 287 -3.1800924334675074e-03</internalNodes>
          <leafValues>
            3.9300522208213806e-01 -6.1579789966344833e-02</leafValues></_>
        <_>
          <internalNodes>
            0 -1 21 -1.5945667400956154e-03</internalNodes>
          <leafValues>
            -5.0564038753509521e-01 5.9241753071546555e-02</leafValues></_>
        <_>
          <internalNodes>
            0 -1 280 -2.1506934426724911e-03</internalNodes>
          <leafValues>
            3.0144199728965759e-01 -1.0641897469758987e-01</leafValues></_>
        <_>
          <internalNodes>
            0 -1 31 -1.1660585878416896e-03</internalNodes>
          <leafValues>
            -6.1063313484191895e-01 4.4029463082551956e-02</leafValues></_>
        <_>
          <internalNodes>
            0 -1 295 -7.7084824442863464e-03</internalNodes>
          <leafValues>
            1.9893561303615570e-01 -1.4538092911243439e-01</leafValues></_>
        <_>
          <internalNodes>
            0 -1 196 -1.2552144471555948e-03</internalNodes>
          <leafValues>
            -5.3057819604873657e-01 4.7390677034854889e-02</leafValues></_>
        <_>
          <internalNodes>
            0 -1 237 -1.9396793097257614e-02</internalNodes>
          <leafValues>
            -6.3470250368118286e-01 3.8613200187683105e-02</leafValues></_>
        <_>
          <internalNodes>
            0 -1 34 -8.4036309272050858e-03</internalNodes>
          <leafValues>
            5.5963379144668579e-01 -4.9957394599914551e-02</leafValues></_>
        <_>
          <internalNodes>
            0 -1 148 -1.3417587615549564e-03</internalNodes>
          <leafValues>
            3.2043361663818359e-01 -7.6324835419654846e-02</leafValues></_>
        <_>
          <internalNodes>
            0 -1 10 2.1332514286041260e-01</internalNodes>
          <leafValues>
            -8.2060337066650391e-02 3.2743528485298157e-01</leafValues></_>
        <_>
          <internalNodes>
            0 -1 374 -3.6580796586349607e-04</internalNodes>
          <leafValues>
            1.8277189135551453e-01 -1.4679490029811859e-01</leafValues></_>
        <_>
          <internalNodes>
            0 -1 99 4.6485313214361668e-03</internalNodes>
          <leafValues>
            5.6218300014734268e-02 -4.5787969231605530e-01</leafValues></_>
        <_>
          <internalNodes>
            0 -1 149 -3.8148756138980389e-03</internalNodes>
          <leafValues>
            -5.3445172309875488e-01 4.6670336276292801e-02</leafValues></_>
        <_>
          <internalNodes>
            0 -1 51 2.1324527915567160e-03</internalNodes>
          <leafValues>
            -1.4461775124073029e-01 1.7557631433010101e-01</leafValues></_>
        <_>
          <internalNodes>
            0 -1 69 -2.6838789926841855e-04</internalNodes>
          <leafValues>
            -2.6648831367492676e-01 1.0829700529575348e-01</leafValues></_>
        <_>
          <internalNodes>
            0 -1 505 -7.0845009759068489e-03</internalNodes>
          <leafValues>
            -3.7699198722839355e-01 6.5149359405040741e-02</leafValues></_>
        <_>
          <internalNodes>
            0 -1 13 7.1774069219827652e-03</internalNodes>
          <leafValues>
            -4.0201891213655472e-02 6.4704650640487671e-01</leafValues></_>
        <_>
          <internalNodes>
            0 -1 369 -9.9821975454688072e-03</internalNodes>
          <leafValues>
            -5.1796841621398926e-01 5.4109498858451843e-02</leafValues></_>
        <_>
          <internalNodes>
            0 -1 108 2.7635661535896361e-04</internalNodes>
          <leafValues>
            1.0566119104623795e-01 -2.3389829695224762e-01</leafValues></_>
        <_>
          <internalNodes>
            0 -1 40 -2.8640512377023697e-02</internalNodes>
          <leafValues>
            -5.1184326410293579e-01 4.8755623400211334e-02</leafValues></_>
        <_>
          <internalNodes>
            0 -1 123 7.9692911822348833e-04</internalNodes>
          <leafValues>
            -8.8937737047672272e-02 2.9525047540664673e-01</leafValues></_>
        <_>
