<?xml version="1.0"?>
<opencv_storage>
<stage0>
  <maxWeakCount>9</maxWeakCount>
  <stageThreshold>-1.0135672092437744e+00</stageThreshold>
  <weakClassifiers>
    <_>
      <internalNodes>
        0 -1 117435 -7.7802571468055248e-04</internalNodes>
      <leafValues>
        7.9529410600662231e-01 1.9200000911951065e-02</leafValues></_>
    <_>
      <internalNodes>
        0 -1 109386 -1.8152339616790414e-03</internalNodes>
      <leafValues>
        6.1911624670028687e-01 -2.0808506011962891e-01</leafValues></_>
    <_>
      <internalNodes>
        0 -1 117120 -2.0559486001729965e-03</internalNodes>
      <leafValues>
        6.8682509660720825e-01 -2.1488620340824127e-01</leafValues></_>
    <_>
      <internalNodes>
        0 -1 117058 1.4036213979125023e-03</internalNodes>
      <leafValues>
        -2.6781108975410461e-01 5.6496536731719971e-01</leafValues></_>
    <_>
      <internalNodes>
        0 -1 101812 -1.5268800780177116e-03</internalNodes>
      <leafValues>
        5.3079080581665039e-01 -2.4605004489421844e-01</leafValues></_>
    <_>
      <internalNodes>
        0 -1 93850 -2.0013949833810329e-03</internalNodes>
      <leafValues>
        5.4525756835937500e-01 -2.2906334698200226e-01</leafValues></_>
    <_>
      <internalNodes>
        0 -1 131809 -1.2169445399194956e-03</internalNodes>
      <leafValues>
        4.5090937614440918e-01 -2.4748919904232025e-01</leafValues></_>
    <_>
      <internalNodes>
        0 -1 138079 2.9967701993882656e-04</internalNodes>
      <leafValues>
        -2.1586626768112183e-01 4.5460414886474609e-01</leafValues></_>
    <_>
      <internalNodes>
        0 -1 124733 1.3889404945075512e-03</internalNodes>
      <leafValues>
        -1.7783698439598083e-01 5.3780740499496460e-01</leafValues></_></weakClassifiers></stage0>
</opencv_storage>
