<?xml version="1.0"?>
<opencv_storage>
<stage7>
  <maxWeakCount>63</maxWeakCount>
  <stageThreshold>-6.2211477756500244e-01</stageThreshold>
  <weakClassifiers>
    <_>
      <internalNodes>
        0 -1 51737 -4.5504434965550900e-03</internalNodes>
      <leafValues>
        5.8608692884445190e-01 2.3803278803825378e-01</leafValues></_>
    <_>
      <internalNodes>
        0 -1 51792 1.2969184666872025e-02</internalNodes>
      <leafValues>
        -6.3243724405765533e-02 4.4629475474357605e-01</leafValues></_>
    <_>
      <internalNodes>
        0 -1 46873 -1.0834340937435627e-03</internalNodes>
      <leafValues>
        2.2097037732601166e-01 -1.2991273403167725e-01</leafValues></_>
    <_>
      <internalNodes>
        0 -1 56050 -5.1423306576907635e-03</internalNodes>
      <leafValues>
        -5.0155133008956909e-01 3.9813898503780365e-02</leafValues></_>
    <_>
      <internalNodes>
        0 -1 7832 4.2949561029672623e-03</internalNodes>
      <leafValues>
        -1.7030990123748779e-01 1.5445889532566071e-01</leafValues></_>
    <_>
      <internalNodes>
        0 -1 992 -2.0712492987513542e-03</internalNodes>
      <leafValues>
        1.9669273495674133e-01 -1.5747578442096710e-01</leafValues></_>
    <_>
      <internalNodes>
        0 -1 3 -2.0726341754198074e-03</internalNodes>
      <leafValues>
        -4.5456641912460327e-01 5.8994431048631668e-02</leafValues></_>
    <_>
      <internalNodes>
        0 -1 55564 -5.0646185874938965e-02</internalNodes>
      <leafValues>
        -3.7847462296485901e-01 7.4710711836814880e-02</leafValues></_>
    <_>
      <internalNodes>
        0 -1 57624 2.3731985129415989e-03</internalNodes>
      <leafValues>
        -8.5254006087779999e-02 3.0387476086616516e-01</leafValues></_>
    <_>
      <internalNodes>
        0 -1 32935 5.9869773685932159e-03</internalNodes>
      <leafValues>
        3.7866052240133286e-02 -7.1173310279846191e-01</leafValues></_>
    <_>
      <internalNodes>
        0 -1 71175 1.1182264424860477e-03</internalNodes>
      <leafValues>
        6.0881845653057098e-02 -3.6412549018859863e-01</leafValues></_>
    <_>
      <internalNodes>
        0 -1 30828 -5.3160339593887329e-03</internalNodes>
      <leafValues>
        2.9101669788360596e-01 -8.5331812500953674e-02</leafValues></_>
    <_>
      <internalNodes>
        0 -1 69795 -8.4219593554735184e-04</internalNodes>
      <leafValues>
        2.3871566355228424e-01 -1.0742978751659393e-01</leafValues></_>
    <_>
      <internalNodes>
        0 -1 67405 1.2178124859929085e-02</internalNodes>
      <leafValues>
        5.1899321377277374e-02 -5.2917760610580444e-01</leafValues></_>
    <_>
      <internalNodes>
        0 -1 69976 1.1248302180320024e-03</internalNodes>
      <leafValues>
        -9.8916888236999512e-02 2.7046385407447815e-01</leafValues></_>
    <_>
      <internalNodes>
        0 -1 60670 2.0702122710645199e-03</internalNodes>
      <leafValues>
        -1.4617101848125458e-01 2.1241717040538788e-01</leafValues></_>
    <_>
      <internalNodes>
        0 -1 67355 2.0650953054428101e-02</internalNodes>
      <leafValues>
        -8.0499678850173950e-02 2.9886364936828613e-01</leafValues></_>
    <_>
      <internalNodes>
        0 -1 59873 4.9365531653165817e-02</internalNodes>
      <leafValues>
        7.4177697300910950e-02 -3.3156719803810120e-01</leafValues></_>
    <_>
      <internalNodes>
        0 -1 77974 2.8640790842473507e-03</internalNodes>
      <leafValues>
        6.9125071167945862e-02 -3.5070121288299561e-01</leafValues></_>
    <_>
      <internalNodes>
        0 -1 56050 2.4372753687202930e-03</internalNodes>
      <leafValues>
        8.4414556622505188e-02 -2.8216284513473511e-01</leafValues></_>
    <_>
      <internalNodes>
        0 -1 34132 2.7608182281255722e-03</internalNodes>
      <leafValues>
        8.1131748855113983e-02 -2.9200947284698486e-01</leafValues></_>
    <_>
      <internalNodes>
        0 -1 37251 -1.6160123050212860e-02</internalNodes>
      <leafValues>
        -5.1097005605697632e-01 4.5437663793563843e-02</leafValues></_>
    <_>
      <internalNodes>
        0 -1 37071 -1.1838958598673344e-03</internalNodes>
      <leafValues>
        2.6496854424476624e-01 -8.4475219249725342e-02</leafValues></_>
    <_>
      <internalNodes>
        0 -1 42164 -1.4679399318993092e-03</internalNodes>
      <leafValues>
        2.2965751588344574e-01 -1.0577682405710220e-01</leafValues></_>
    <_>
      <internalNodes>
        0 -1 3823 -2.4142839014530182e-02</internalNodes>
      <leafValues>
        -4.2162114381790161e-01 5.9753999114036560e-02</leafValues></_>
    <_>
      <internalNodes>
        0 -1 4388 -2.2482224740087986e-03</internalNodes>
      <leafValues>
        -5.3095257282257080e-01 4.3919358402490616e-02</leafValues></_>
    <_>
      <internalNodes>
        0 -1 26147 1.7524877330288291e-03</internalNodes>
      <leafValues>
        -9.9273361265659332e-02 2.7588844299316406e-01</leafValues></_>
    <_>
      <internalNodes>
        0 -1 8156 -6.6184215247631073e-03</internalNodes>
      <leafValues>
        1.5711154043674469e-01 -1.4559143781661987e-01</leafValues></_>
    <_>
      <internalNodes>
        0 -1 48540 4.3385052122175694e-03</internalNodes>
      <leafValues>
        -6.4970381557941437e-02 3.6581739783287048e-01</leafValues></_>
    <_>
      <internalNodes>
        0 -1 48540 -2.1891049109399319e-03</internalNodes>
      <leafValues>
        2.4954825639724731e-01 -1.0377673804759979e-01</leafValues></_>
    <_>
      <internalNodes>
        0 -1 10737 2.6117367669939995e-03</internalNodes>
      <leafValues>
        6.0437344014644623e-02 -4.2682811617851257e-01</leafValues></_>
    <_>
      <internalNodes>
        0 -1 29328 1.9200909882783890e-03</internalNodes>
      <leafValues>
        -1.0458536446094513e-01 2.3741732537746429e-01</leafValues></_>
    <_>
      <internalNodes>
        0 -1 63019 -1.5498979017138481e-02</internalNodes>
      <leafValues>
        -5.1550364494323730e-01 5.2111916244029999e-02</leafValues></_>
    <_>
      <internalNodes>
        0 -1 46705 -3.0371118336915970e-03</internalNodes>
      <leafValues>
        2.0622359216213226e-01 -1.0428497195243835e-01</leafValues></_>
    <_>
      <internalNodes>
        0 -1 60156 5.6951344013214111e-03</internalNodes>
      <leafValues>
        -7.7314235270023346e-02 3.2422861456871033e-01</leafValues></_>
    <_>
      <internalNodes>
        0 -1 39873 2.6482984423637390e-02</internalNodes>
      <leafValues>
        4.7094553709030151e-02 -4.9711444973945618e-01</leafValues></_>
    <_>
      <internalNodes>
        0 -1 45165 -1.7214614897966385e-02</internalNodes>
      <leafValues>
        -4.3016430735588074e-01 5.2894264459609985e-02</leafValues></_>
    <_>
      <internalNodes>
        0 -1 14509 -1.5399084659293294e-03</internalNodes>
      <leafValues>
        -2.1557660400867462e-01 1.0138178616762161e-01</leafValues></_>
    <_>
      <internalNodes>
        0 -1 48219 1.5524136833846569e-03</internalNodes>
      <leafValues>
        -7.9830691218376160e-02 2.7413311600685120e-01</leafValues></_>
    <_>
      <internalNodes>
        0 -1 59960 1.6347692580893636e-03</internalNodes>
      <leafValues>
        -1.0397413372993469e-01 2.0664639770984650e-01</leafValues></_>
    <_>
      <internalNodes>
        0 -1 56044 -1.1460970854386687e-03</internalNodes>
      <leafValues>
        2.2180187702178955e-01 -1.0277666151523590e-01</leafValues></_>
    <_>
      <internalNodes>
        0 -1 9714 1.3609759509563446e-02</internalNodes>
      <leafValues>
        3.2524690032005310e-02 -7.6820367574691772e-01</leafValues></_>
    <_>
      <internalNodes>
        0 -1 70797 -1.0462313657626510e-03</internalNodes>
      <leafValues>
        2.6291432976722717e-01 -9.1918446123600006e-02</leafValues></_>
    <_>
      <internalNodes>
        0 -1 9219 -9.5499176532030106e-03</internalNodes>
      <leafValues>
        -1.9422043859958649e-01 1.1568015068769455e-01</leafValues></_>
    <_>
      <internalNodes>
        0 -1 67341 -9.6729276701807976e-03</internalNodes>
      <leafValues>
        -8.8364768028259277e-01 2.6923684403300285e-02</leafValues></_>
    <_>
      <internalNodes>
        0 -1 60626 5.8764843270182610e-03</internalNodes>
      <leafValues>
        -6.8001575767993927e-02 3.6062318086624146e-01</leafValues></_>
    <_>
      <internalNodes>
        0 -1 8318 9.9638546817004681e-04</internalNodes>
      <leafValues>
        7.2558350861072540e-02 -3.3519551157951355e-01</leafValues></_>
    <_>
      <internalNodes>
        0 -1 31588 -2.2560316137969494e-03</internalNodes>
      <leafValues>
        2.9116922616958618e-01 -8.1015512347221375e-02</leafValues></_>
    <_>
      <internalNodes>
        0 -1 29227 5.7486136211082339e-04</internalNodes>
      <leafValues>
        -1.4454746246337891e-01 1.6140121221542358e-01</leafValues></_>
    <_>
      <internalNodes>
        0 -1 24604 1.3445634394884109e-02</internalNodes>
      <leafValues>
        -5.6981492787599564e-02 4.3505400419235229e-01</leafValues></_>
    <_>
      <internalNodes>
        0 -1 27361 3.0372429173439741e-03</internalNodes>
      <leafValues>
        9.3658052384853363e-02 -2.5408864021301270e-01</leafValues></_>
    <_>
      <internalNodes>
        0 -1 44896 -5.4118409752845764e-03</internalNodes>
      <leafValues>
        -2.9251375794410706e-01 7.5964100658893585e-02</leafValues></_>
    <_>
      <internalNodes>
        0 -1 55026 2.2013712674379349e-02</internalNodes>
      <leafValues>
        5.4559443145990372e-02 -4.1332978010177612e-01</leafValues></_>
    <_>
      <internalNodes>
        0 -1 67850 -1.5962332487106323e-02</internalNodes>
      <leafValues>
        -7.9989445209503174e-01 2.5969984009861946e-02</leafValues></_>
    <_>
      <internalNodes>
        0 -1 75560 5.9954699128866196e-02</internalNodes>
      <leafValues>
        -5.3538475185632706e-02 4.7274419665336609e-01</leafValues></_>
    <_>
      <internalNodes>
        0 -1 53091 -4.8540628631599247e-04</internalNodes>
      <leafValues>
        1.4688880741596222e-01 -1.6232052445411682e-01</leafValues></_>
    <_>
      <internalNodes>
        0 -1 63448 -2.3855667561292648e-02</internalNodes>
      <leafValues>
        -5.7138895988464355e-01 4.4379714876413345e-02</leafValues></_>
    <_>
      <internalNodes>
        0 -1 59960 -3.6642621271312237e-03</internalNodes>
      <leafValues>
        4.3334603309631348e-01 -6.4909718930721283e-02</leafValues></_>
    <_>
      <internalNodes>
        0 -1 63862 -2.3189568892121315e-03</internalNodes>
      <leafValues>
        2.8701451420783997e-01 -8.6002804338932037e-02</leafValues></_>
    <_>
      <internalNodes>
        0 -1 52002 -1.1308249086141586e-03</internalNodes>
      <leafValues>
        1.7782540619373322e-01 -1.4575052261352539e-01</leafValues></_>
    <_>
      <internalNodes>
        0 -1 75926 5.0465371459722519e-03</internalNodes>
      <leafValues>
        3.1964007765054703e-02 -7.6228868961334229e-01</leafValues></_>
    <_>
      <internalNodes>
        0 -1 29271 -2.1984349004924297e-03</internalNodes>
      <leafValues>
        2.8546914458274841e-01 -7.9446174204349518e-02</leafValues></_>
    <_>
      <internalNodes>
        0 -1 52380 -3.0268644914031029e-03</internalNodes>
      <leafValues>
        2.9762315750122070e-01 -7.5292423367500305e-02</leafValues></_></weakClassifiers></stage7>
</opencv_storage>
